{"learner":{"attributes":{"scikit_learn":"{\"_estimator_type\": \"classifier\"}"},"feature_names":["b","e","AC","FM","UC","DL","DS","DP","DR","LB","ASTV","MSTV","ALTV","MLTV","Width","Min","Max","Nmax","Nzeros","Mode","Mean","Median","Variance","Tendency"],"feature_types":["int","int","int","int","int","int","int","int","int","int","int","float","int","float","int","int","int","int","int","int","int","int","int","int"],"gradient_booster":{"model":{"gbtree_model_param":{"num_parallel_tree":"1","num_trees":"300"},"iteration_indptr":[0,3,6,9,12,15,18,21,24,27,30,33,36,39,42,45,48,51,54,57,60,63,66,69,72,75,78,81,84,87,90,93,96,99,102,105,108,111,114,117,120,123,126,129,132,135,138,141,144,147,150,153,156,159,162,165,168,171,174,177,180,183,186,189,192,195,198,201,204,207,210,213,216,219,222,225,228,231,234,237,240,243,246,249,252,255,258,261,264,267,270,273,276,279,282,285,288,291,294,297,300],"tree_info":[0,1,2,0,1,2,0,1,2,0,1,2,0,1,2,0,1,2,0,1,2,0,1,2,0,1,2,0,1,2,0,1,2,0,1,2,0,1,2,0,1,2,0,1,2,0,1,2,0,1,2,0,1,2,0,1,2,0,1,2,0,1,2,0,1,2,0,1,2,0,1,2,0,1,2,0,1,2,0,1,2,0,1,2,0,1,2,0,1,2,0,1,2,0,1,2,0,1,2,0,1,2,0,1,2,0,1,2,0,1,2,0,1,2,0,1,2,0,1,2,0,1,2,0,1,2,0,1,2,0,1,2,0,1,2,0,1,2,0,1,2,0,1,2,0,1,2,0,1,2,0,1,2,0,1,2,0,1,2,0,1,2,0,1,2,0,1,2,0,1,2,0,1,2,0,1,2,0,1,2,0,1,2,0,1,2,0,1,2,0,1,2,0,1,2,0,1,2,0,1,2,0,1,2,0,1,2,0,1,2,0,1,2,0,1,2,0,1,2,0,1,2,0,1,2,0,1,2,0,1,2,0,1,2,0,1,2,0,1,2,0,1,2,0,1,2,0,1,2,0,1,2,0,1,2,0,1,2,0,1,2,0,1,2,0,1,2,0,1,2,0,1,2,0,1,2,0,1,2,0,1,2,0,1,2,0,1,2,0,1,2,0,1,2,0,1,2,0,1,2],"trees":[{"base_weights":[8.107419E-3,-3.479566E-1,1.1846154E0,5.9876114E-1,-5.149009E-1,-6.510264E-1,1.4219052E0,1.2541805E-1,-4.5132753E-2,-1.3614002E-2,-6.224028E-2,-7.292309E-2,6E-2,1.445444E-1,-2.0000003E-2],"categories":[],"categories_nodes":[],"categories_segments":[],"categories_sizes":[],"default_left":[0,0,0,0,0,0,0,0,0,0,0,0,0,0,0],"id":0,"left_children":[1,3,5,7,9,11,13,-1,-1,-1,-1,-1,-1,-1,-1],"loss_changes":[5.860048E2,1.7003552E2,1.4248883E2,1.11679924E2,3.710846E1,4.1444225E0,1.1288574E1,0E0,0E0,0E0,0E0,0E0,0E0,0E0,0E0],"parents":[2147483647,0,0,1,1,2,2,3,3,4,4,5,5,6,6],"right_children":[2,4,6,8,10,12,14,-1,-1,-1,-1,-1,-1,-1,-1],"split_conditions":[2E0,4.3E1,1.06E2,4.4E1,6E1,2.49E3,3.25E2,1.2541805E-1,-4.5132753E-2,-1.3614002E-2,-6.224028E-2,-7.292309E-2,6E-2,1.445444E-1,-2.0000003E-2],"split_indices":[2,10,19,22,10,1,3,0,0,0,0,0,0,0,0],"split_type":[0,0,0,0,0,0,0,0,0,0,0,0,0,0,0],"sum_hessian":[1.3968888E3,1.0728888E3,3.2399997E2,1.6044443E2,9.124444E2,3.6888885E1,2.8711108E2,9.8666664E1,6.1777775E1,2.0222221E2,7.1022217E2,3.511111E1,1.7777777E0,2.8311108E2,3.9999998E0],"tree_param":{"num_deleted":"0","num_feature":"24","num_nodes":"15","size_leaf_vector":"1"}},{"base_weights":[6.2136096E-3,-6.843669E-1,5.844668E-1,-6.977116E-1,1.5463914E-1,-6.607934E-2,9.567717E-1,5.121951E-2,-7.054417E-2,1.0408163E-1,-6.31579E-2,-5.5676218E-2,2.6724711E-2,1.06758416E-1,-6.332181E-2],"categories":[],"categories_nodes":[],"categories_segments":[],"categories_sizes":[],"default_left":[0,0,0,0,0,0,0,0,0,0,0,0,0,0,0],"id":1,"left_children":[1,3,5,7,9,11,13,-1,-1,-1,-1,-1,-1,-1,-1],"loss_changes":[5.5737714E2,7.2299805E0,1.840556E2,6.2191772E0,8.166543E0,4.5526928E1,8.581528E1,0E0,0E0,0E0,0E0,0E0,0E0,0E0,0E0],"parents":[2147483647,0,0,1,1,2,2,3,3,4,4,5,5,6,6],"right_children":[2,4,6,8,10,12,14,-1,-1,-1,-1,-1,-1,-1,-1],"split_conditions":[2E0,3.25E2,1.41E2,1E0,2.6E1,4.9E0,7.9E1,5.121951E-2,-7.054417E-2,1.0408163E-1,-6.31579E-2,-5.5676218E-2,2.6724711E-2,1.06758416E-1,-6.332181E-2],"split_indices":[12,3,21,22,10,13,10,0,0,0,0,0,0,0,0],"split_type":[0,0,0,0,0,0,0,0,0,0,0,0,0,0,0],"sum_hessian":[1.3937777E3,6.351111E2,7.586666E2,6.253333E2,9.777777E0,2.7644443E2,4.822222E2,3.5555553E0,6.217778E2,4.444444E0,5.333333E0,1.1155555E2,1.6488889E2,4.5111108E2,3.1111109E1],"tree_param":{"num_deleted":"0","num_feature":"24","num_nodes":"15","size_leaf_vector":"1"}},{"base_weights":[2.5108524E-2,1.4044032E0,-3.290035E-1,-2.0000003E-1,1.4277321E0,-4.8613665E-1,1.44E0,4.285714E-2,-5.454546E-2,1.444927E-1,-5.1724143E-2,-5.8160145E-2,1.3002114E-1,1.4719102E-1,2.7272725E-2],"categories":[],"categories_nodes":[],"categories_segments":[],"categories_sizes":[],"default_left":[0,0,0,0,0,0,0,0,0,0,0,0,0,0,0],"id":2,"left_children":[1,3,5,7,9,11,13,-1,-1,-1,-1,-1,-1,-1,-1],"loss_changes":[6.877844E2,1.1052551E1,3.1217978E2,1.3194805E0,1.0234192E1,1.7638658E2,3.0129547E0,0E0,0E0,0E0,0E0,0E0,0E0,0E0,0E0],"parents":[2147483647,0,0,1,1,2,2,3,3,4,4,5,5,6,6],"right_children":[2,4,6,8,10,12,14,-1,-1,-1,-1,-1,-1,-1,-1],"split_conditions":[1.11E2,2.5E1,6.8E1,5.39E2,1.36E2,7.9E1,4E0,4.285714E-2,-5.454546E-2,1.444927E-1,-5.1724143E-2,-5.8160145E-2,1.3002114E-1,1.4719102E-1,2.7272725E-2],"split_indices":[20,10,12,1,19,10,4,0,0,0,0,0,0,0,0],"split_type":[0,0,0,0,0,0,0,0,0,0,0,0,0,0,0],"sum_hessian":[1.4062222E3,2.8666666E2,1.1195555E3,3.9999998E0,2.8266666E2,1.0288888E3,9.0666664E1,1.3333333E0,2.6666665E0,2.8044443E2,2.222222E0,9.7733325E2,5.1555553E1,8.799999E1,2.6666665E0],"tree_param":{"num_deleted":"0","num_feature":"24","num_nodes":"15","size_leaf_vector":"1"}},{"base_weights":[-2.537592E-3,-6.0048836E-1,3.4890226E-1,-6.33073E-1,1.8593417E-1,-6.7001086E-1,7.5659865E-1,-6.4263366E-2,1.042995E-1,1.1365741E-1,-3.9676692E-2,-6.8911634E-2,8.181402E-2,1.0452016E-1,1.0653741E-2],"categories":[],"categories_nodes":[],"categories_segments":[],"categories_sizes":[],"default_left":[0,0,0,0,0,0,0,0,0,0,0,0,0,0,0],"id":3,"left_children":[1,3,5,7,9,11,13,-1,-1,-1,-1,-1,-1,-1,-1],"loss_changes":[2.9477313E2,1.3423645E1,3.675088E2,8.663498E0,1.2322745E1,7.757324E0,1.18357574E2,0E0,0E0,0E0,0E0,0E0,0E0,0E0,0E0],"parents":[2147483647,0,0,1,1,2,2,3,3,4,4,5,5,6,6],"right_children":[2,4,6,8,10,12,14,-1,-1,-1,-1,-1,-1,-1,-1],"split_conditions":[5.979384E-1,1.857E3,1.1E2,1.63E2,1.47E2,2.28E2,7E0,-6.4263366E-2,1.042995E-1,1.1365741E-1,-3.9676692E-2,-6.8911634E-2,8.181402E-2,1.0452016E-1,1.0653741E-2],"split_indices":[11,0,20,20,19,16,12,0,0,0,0,0,0,0,0],"split_type":[0,0,0,0,0,0,0,0,0,0,0,0,0,0,0],"sum_hessian":[1.4007247E3,5.1824976E2,8.82475E2,4.9781815E2,2.0431591E1,2.520098E2,6.304652E2,4.9560767E2,2.2104788E0,7.403205E0,1.3028386E1,2.4934554E2,2.6642675E0,4.362006E2,1.942646E2],"tree_param":{"num_deleted":"0","num_feature":"24","num_nodes":"15","size_leaf_vector":"1"}},{"base_weights":[2.1137724E-4,-5.9296227E-1,5.64358E-1,-6.3458836E-1,4.4134235E-1,7.518308E-1,-7.071869E-1,-6.80637E-2,-2.3857161E-2,9.090656E-2,-6.461247E-2,4.629698E-3,9.234058E-2,-7.613655E-3,-7.2800145E-2],"categories":[],"categories_nodes":[],"categories_segments":[],"categories_sizes":[],"default_left":[0,0,0,0,0,0,0,0,0,0,0,0,0,0,0],"id":4,"left_children":[1,3,5,7,9,11,13,-1,-1,-1,-1,-1,-1,-1,-1],"loss_changes":[4.7108014E2,2.9824402E1,1.7252803E2,1.1874756E1,1.439086E1,7.6134796E1,1.1690903E0,0E0,0E0,0E0,0E0,0E0,0E0,0E0,0E0],"parents":[2147483647,0,0,1,1,2,2,3,3,4,4,5,5,6,6],"right_children":[2,4,6,8,10,12,14,-1,-1,-1,-1,-1,-1,-1,-1],"split_conditions":[7E0,1.34E2,6.8E1,2E0,2E0,1.35E2,6.9E1,-6.80637E-2,-2.3857161E-2,9.090656E-2,-6.461247E-2,4.629698E-3,9.234058E-2,-7.613655E-3,-7.2800145E-2],"split_indices":[12,15,12,12,2,20,12,0,0,0,0,0,0,0,0],"split_type":[0,0,0,0,0,0,0,0,0,0,0,0,0,0,0],"sum_hessian":[1.4057352E3,6.852139E2,7.2052136E2,6.5907556E2,2.6138372E1,6.2829596E2,9.222537E1,5.8977783E2,6.929772E1,1.8391973E1,7.746398E0,1.23152084E2,5.051439E2,3.093549E0,8.913183E1],"tree_param":{"num_deleted":"0","num_feature":"24","num_nodes":"15","size_leaf_vector":"1"}},{"base_weights":[-7.0417207E-3,1.2250274E0,-3.265148E-1,1.2437049E0,-5.5661477E-2,-4.868434E-1,1.1627731E0,-3.598526E-2,1.2649238E-1,-5.7211127E-2,1.1848607E-1,1.2505911E-1,3.2941613E-2],"categories":[],"categories_nodes":[],"categories_segments":[],"categories_sizes":[],"default_left":[0,0,0,0,0,0,0,0,0,0,0,0,0],"id":5,"left_children":[1,3,5,7,-1,9,11,-1,-1,-1,-1,-1,-1],"loss_changes":[5.533729E2,1.0325226E1,2.6713095E2,1.0213379E1,0E0,1.444443E2,7.5502777E0,0E0,0E0,0E0,0E0,0E0,0E0],"parents":[2147483647,0,0,1,1,2,2,3,3,5,5,6,6],"right_children":[2,4,6,8,-1,10,12,-1,-1,-1,-1,-1,-1],"split_conditions":[1.11E2,1.26E2,6.5E1,2.5E1,-5.5661477E-2,7.9E1,3.9713952E-1,-3.598526E-2,1.2649238E-1,-5.7211127E-2,1.1848607E-1,1.2505911E-1,3.2941613E-2],"split_indices":[20,21,12,10,0,10,11,0,0,0,0,0,0],"split_type":[0,0,0,0,0,0,0,0,0,0,0,0,0],"sum_hessian":[1.4038647E3,2.8848163E2,1.115383E3,2.8578757E2,2.6940546E0,1.0075851E3,1.07798004E2,3.5238538E0,2.822637E2,9.5931165E2,4.827341E1,9.7068405E1,1.0729595E1],"tree_param":{"num_deleted":"0","num_feature":"24","num_nodes":"13","size_leaf_vector":"1"}},{"base_weights":[-8.8774954E-4,-3.0929735E-1,9.561856E-1,2.4555057E-1,-5.434981E-1,-6.5233E-1,1.1432856E0,8.525634E-2,-1.7082157E-2,-6.464409E-2,-3.4352478E-2,-7.0500545E-2,3.8064852E-2,1.16661005E-1,-2.926338E-2],"categories":[],"categories_nodes":[],"categories_segments":[],"categories_sizes":[],"default_left":[0,0,0,0,0,0,0,0,0,0,0,0,0,0,0],"id":6,"left_children":[1,3,5,7,9,11,13,-1,-1,-1,-1,-1,-1,-1,-1],"loss_changes":[4.0839935E2,1.3610944E2,1.0222641E2,7.8818695E1,1.4931732E1,2.2148085E0,1.0470215E1,0E0,0E0,0E0,0E0,0E0,0E0,0E0,0E0],"parents":[2147483647,0,0,1,1,2,2,3,3,4,4,5,5,6,6],"right_children":[2,4,6,8,10,12,14,-1,-1,-1,-1,-1,-1,-1,-1],"split_conditions":[2E0,5.7E1,1.07E2,1.59E2,1.219E3,2.49E3,3.19E2,8.525634E-2,-1.7082157E-2,-6.464409E-2,-3.4352478E-2,-7.0500545E-2,3.8064852E-2,1.16661005E-1,-2.926338E-2],"split_indices":[2,10,19,16,1,1,3,0,0,0,0,0,0,0,0],"split_type":[0,0,0,0,0,0,0,0,0,0,0,0,0,0,0],"sum_hessian":[1.3816025E3,1.0454054E3,3.361971E2,3.1027664E2,7.351288E2,3.4772064E1,3.0142505E2,1.2581224E2,1.844644E2,4.8382928E2,2.5129947E2,3.338704E1,1.3850269E0,2.9679166E2,4.6334004E0],"tree_param":{"num_deleted":"0","num_feature":"24","num_nodes":"15","size_leaf_vector":"1"}},{"base_weights":[-3.1279714E-4,-6.417667E-1,4.669679E-1,-6.543234E-1,3.1532106E-1,6.05739E-1,-6.8031675E-1,3.407336E-2,-6.620296E-2,1.14603534E-1,-5.587345E-2,-1.8231705E-3,8.099538E-2,-1.7336415E-2,-7.0169166E-2],"categories":[],"categories_nodes":[],"categories_segments":[],"categories_sizes":[],"default_left":[0,0,0,0,0,0,0,0,0,0,0,0,0,0,0],"id":7,"left_children":[1,3,5,7,9,11,13,-1,-1,-1,-1,-1,-1,-1,-1],"loss_changes":[4.2026392E2,7.307907E0,1.295599E2,4.7006683E0,6.6865473E0,9.229254E1,8.3193207E-1,0E0,0E0,0E0,0E0,0E0,0E0,0E0,0E0],"parents":[2147483647,0,0,1,1,2,2,3,3,4,4,5,5,6,6],"right_children":[2,4,6,8,10,12,14,-1,-1,-1,-1,-1,-1,-1,-1],"split_conditions":[2E0,3.25E2,6.8E1,1E0,2.6E1,1.36E2,6.9E1,3.407336E-2,-6.620296E-2,1.14603534E-1,-5.587345E-2,-1.8231705E-3,8.099538E-2,-1.7336415E-2,-7.0169166E-2],"split_indices":[12,3,12,22,10,20,12,0,0,0,0,0,0,0,0],"split_type":[0,0,0,0,0,0,0,0,0,0,0,0,0,0,0],"sum_hessian":[1.4000995E3,5.899203E2,8.1017926E2,5.825932E2,7.3270874E0,7.231784E2,8.700084E1,4.1451225E0,5.7844806E2,3.5971437E0,3.7299438E0,1.7854663E2,5.446318E2,3.8884428E0,8.31124E1],"tree_param":{"num_deleted":"0","num_feature":"24","num_nodes":"15","size_leaf_vector":"1"}},{"base_weights":[1.0083842E-2,8.431083E-1,-3.7591177E-1,3.0299193E-1,1.146354E0,-5.383283E-1,1.0062833E0,-6.2170338E-2,5.8768094E-2,-5.20653E-2,1.1634071E-1,-6.1784446E-2,1.02358215E-1,3.1307485E-2,1.1450274E-1],"categories":[],"categories_nodes":[],"categories_segments":[],"categories_sizes":[],"default_left":[0,0,0,0,0,0,0,0,0,0,0,0,0,0,0],"id":8,"left_children":[1,3,5,7,9,11,13,-1,-1,-1,-1,-1,-1,-1,-1],"loss_changes":[4.4989706E2,7.221689E1,2.1519012E2,4.2659554E1,8.66156E0,1.0697824E2,9.344841E0,0E0,0E0,0E0,0E0,0E0,0E0,0E0,0E0],"parents":[2147483647,0,0,1,1,2,2,3,3,4,4,5,5,6,6],"right_children":[2,4,6,8,10,12,14,-1,-1,-1,-1,-1,-1,-1,-1],"split_conditions":[1.26E2,1E0,6.5E1,3.2E1,1.8E1,7.9E1,6.8E1,-6.2170338E-2,5.8768094E-2,-5.20653E-2,1.1634071E-1,-6.1784446E-2,1.02358215E-1,3.1307485E-2,1.1450274E-1],"split_indices":[21,7,12,10,10,10,12,0,0,0,0,0,0,0,0],"split_type":[0,0,0,0,0,0,0,0,0,0,0,0,0,0,0],"sum_hessian":[1.3971926E3,4.4203793E2,9.5515466E2,1.5966135E2,2.823766E2,8.552661E2,9.988857E1,3.7305603E1,1.2235574E2,2.5603752E0,2.798162E2,8.144093E2,4.0856804E1,1.720143E1,8.268714E1],"tree_param":{"num_deleted":"0","num_feature":"24","num_nodes":"15","size_leaf_vector":"1"}},{"base_weights":[-7.171832E-3,-5.5414283E-1,2.8586215E-1,-6.413271E-1,-2.5659966E-1,-6.0167986E-1,6.2455344E-1,-6.490709E-2,4.7336157E-2,5.8934446E-2,-3.7824046E-2,-6.275518E-2,8.675641E-2,8.3162956E-2,9.74379E-3],"categories":[],"categories_nodes":[],"categories_segments":[],"categories_sizes":[],"default_left":[0,0,0,0,0,0,0,0,0,0,0,0,0,0,0],"id":9,"left_children":[1,3,5,7,9,11,13,-1,-1,-1,-1,-1,-1,-1,-1],"loss_changes":[2.1855177E2,1.2174774E1,2.6727988E2,3.476944E0,1.1486448E1,9.885971E0,7.0120316E1,0E0,0E0,0E0,0E0,0E0,0E0,0E0,0E0],"parents":[2147483647,0,0,1,1,2,2,3,3,4,4,5,5,6,6],"right_children":[2,4,6,8,10,12,14,-1,-1,-1,-1,-1,-1,-1,-1],"split_conditions":[6E-1,2E0,1.11E2,2.591E3,9E0,1.26E2,8E0,-6.490709E-2,4.7336157E-2,5.8934446E-2,-3.7824046E-2,-6.275518E-2,8.675641E-2,8.3162956E-2,9.74379E-3],"split_indices":[11,4,20,1,12,21,12,0,0,0,0,0,0,0,0],"split_type":[0,0,0,0,0,0,0,0,0,0,0,0,0,0,0],"sum_hessian":[1.3615647E3,4.7466815E2,8.8689655E2,3.6620862E2,1.0845953E2,2.4475043E2,6.421461E2,3.6409692E2,2.111679E0,1.3151718E1,9.5307816E1,2.4107814E2,3.6722775E0,4.6061636E2,1.8152975E2],"tree_param":{"num_deleted":"0","num_feature":"24","num_nodes":"15","size_leaf_vector":"1"}},{"base_weights":[1.525737E-3,-6.2361485E-1,4.240518E-1,-6.347881E-1,1.3768508E-1,-5.0036275E-1,5.772313E-1,-6.580686E-2,-2.734003E-2,-5.6466974E-2,8.605202E-2,-5.6907363E-2,4.6942018E-2,-4.6547495E-2,6.8931796E-2],"categories":[],"categories_nodes":[],"categories_segments":[],"categories_sizes":[],"default_left":[0,0,0,0,0,0,0,0,0,0,0,0,0,0,0],"id":10,"left_children":[1,3,5,7,9,11,13,-1,-1,-1,-1,-1,-1,-1,-1],"loss_changes":[3.593141E2,4.7540894E0,1.1522688E2,4.370529E0,4.931818E0,7.991329E0,8.1756256E1,0E0,0E0,0E0,0E0,0E0,0E0,0E0,0E0],"parents":[2147483647,0,0,1,1,2,2,3,3,4,4,5,5,6,6],"right_children":[2,4,6,8,10,12,14,-1,-1,-1,-1,-1,-1,-1,-1],"split_conditions":[2E0,3.25E2,4.2E0,1.43E2,8.264903E0,1.51E2,4.3E1,-6.580686E-2,-2.734003E-2,-5.6466974E-2,8.605202E-2,-5.6907363E-2,4.6942018E-2,-4.6547495E-2,6.8931796E-2],"split_indices":[12,3,13,9,13,19,10,0,0,0,0,0,0,0,0],"split_type":[0,0,0,0,0,0,0,0,0,0,0,0,0,0,0],"sum_hessian":[1.3583251E3,5.476233E2,8.107018E2,5.398661E2,7.757189E0,1.1491869E2,6.957831E2,5.064217E2,3.3444416E1,4.045309E0,3.7118797E0,1.0770107E2,7.217616E0,6.7228165E1,6.2855493E2],"tree_param":{"num_deleted":"0","num_feature":"24","num_nodes":"15","size_leaf_vector":"1"}},{"base_weights":[-7.950606E-3,1.0089283E0,-3.0169722E-1,-2.274239E-1,1.0311955E0,-4.382683E-1,1.0222651E0,-6.491311E-2,6.661225E-2,1.0458936E-1,-5.7174444E-2,-5.018444E-2,5.1433384E-2,1.0575117E-1,1.2895024E-2],"categories":[],"categories_nodes":[],"categories_segments":[],"categories_sizes":[],"default_left":[0,0,0,0,0,0,0,0,0,0,0,0,0,0,0],"id":11,"left_children":[1,3,5,7,9,11,13,-1,-1,-1,-1,-1,-1,-1,-1],"loss_changes":[4.056696E2,8.614319E0,1.9097076E2,2.770331E0,7.6467285E0,5.8147644E1,2.9753647E0,0E0,0E0,0E0,0E0,0E0,0E0,0E0,0E0],"parents":[2147483647,0,0,1,1,2,2,3,3,4,4,5,5,6,6],"right_children":[2,4,6,8,10,12,14,-1,-1,-1,-1,-1,-1,-1,-1],"split_conditions":[1.11E2,7E1,6.8E1,1.22E2,2.28E2,1E0,4E0,-6.491311E-2,6.661225E-2,1.0458936E-1,-5.7174444E-2,-5.018444E-2,5.1433384E-2,1.0575117E-1,1.2895024E-2],"split_indices":[20,14,12,9,16,7,4,0,0,0,0,0,0,0,0],"split_type":[0,0,0,0,0,0,0,0,0,0,0,0,0,0,0],"sum_hessian":[1.3560765E3,3.0338773E2,1.0526888E3,5.2044516E0,2.9818326E2,9.548607E2,9.782808E1,3.7215898E0,1.4828616E0,2.958183E2,2.3649726E0,8.9556445E2,5.9296253E1,9.393786E1,3.8902225E0],"tree_param":{"num_deleted":"0","num_feature":"24","num_nodes":"15","size_leaf_vector":"1"}},{"base_weights":[1.8546428E-4,5.353194E-1,-4.5557895E-1,8.638624E-2,8.719926E-1,-5.2070636E-1,3.7262073E-1,9.492209E-2,-1.2456016E-2,9.495454E-2,2.0906188E-4,-3.608224E-2,-6.0258668E-2,-5.829985E-2,1.035858E-1],"categories":[],"categories_nodes":[],"categories_segments":[],"categories_sizes":[],"default_left":[0,0,0,0,0,0,0,0,0,0,0,0,0,0,0],"id":12,"left_children":[1,3,5,7,9,11,13,-1,-1,-1,-1,-1,-1,-1,-1],"loss_changes":[3.294845E2,9.383934E1,3.9545807E1,4.8787315E1,2.394513E1,8.642731E0,3.4684414E1,0E0,0E0,0E0,0E0,0E0,0E0,0E0,0E0],"parents":[2147483647,0,0,1,1,2,2,3,3,4,4,5,5,6,6],"right_children":[2,4,6,8,10,12,14,-1,-1,-1,-1,-1,-1,-1,-1],"split_conditions":[5.9E1,1E0,3E0,1.5E2,1E0,7E0,1.01E2,9.492209E-2,-1.2456016E-2,9.495454E-2,2.0906188E-4,-3.608224E-2,-6.0258668E-2,-5.829985E-2,1.035858E-1],"split_indices":[10,2,2,16,7,12,19,0,0,0,0,0,0,0,0],"split_type":[0,0,0,0,0,0,0,0,0,0,0,0,0,0,0],"sum_hessian":[1.3489277E3,6.2036005E2,7.2856775E2,2.6639508E2,3.5396497E2,6.757962E2,5.2771515E1,5.164629E1,2.147488E2,3.249075E2,2.9057451E1,2.3070877E2,4.4508746E2,2.1669786E1,3.1101727E1],"tree_param":{"num_deleted":"0","num_feature":"24","num_nodes":"15","size_leaf_vector":"1"}},{"base_weights":[1.5521266E-3,-6.0075486E-1,3.917907E-1,-6.1052316E-1,3.6847237E-1,4.960653E-1,-6.653806E-2,-6.352388E-2,-2.5573913E-2,-4.4657696E-2,7.9066955E-2,6.294369E-2,-2.4847288E-2],"categories":[],"categories_nodes":[],"categories_segments":[],"categories_sizes":[],"default_left":[0,0,0,0,0,0,0,0,0,0,0,0,0],"id":13,"left_children":[1,3,5,7,9,11,-1,-1,-1,-1,-1,-1,-1],"loss_changes":[3.181713E2,5.263855E0,9.088313E1,4.461197E0,2.395072E0,7.44597E1,0E0,0E0,0E0,0E0,0E0,0E0,0E0],"parents":[2147483647,0,0,1,1,2,2,3,3,4,4,5,5],"right_children":[2,4,6,8,10,12,-1,-1,-1,-1,-1,-1,-1],"split_conditions":[2E0,4.35E2,6.9E1,1.43E2,1.32E2,1E0,-6.653806E-2,-6.352388E-2,-2.5573913E-2,-4.4657696E-2,7.9066955E-2,6.294369E-2,-2.4847288E-2],"split_indices":[12,3,12,9,9,2,0,0,0,0,0,0,0],"split_type":[0,0,0,0,0,0,0,0,0,0,0,0,0],"sum_hessian":[1.351669E3,5.312228E2,8.2044617E2,5.2628876E2,4.9340563E0,7.472696E2,7.317655E1,4.912742E2,3.5014538E1,1.6639893E0,3.270067E0,6.33876E2,1.13393654E2],"tree_param":{"num_deleted":"0","num_feature":"24","num_nodes":"13","size_leaf_vector":"1"}},{"base_weights":[-1.8778015E-3,7.140506E-1,-3.4894004E-1,-5.427308E-2,8.7112325E-1,-5.0685793E-1,8.4462565E-1,-6.5142706E-2,6.857002E-2,-1.7087478E-2,9.3254685E-2,-5.78835E-2,1.0102501E-1,3.3866532E-2,9.635412E-2],"categories":[],"categories_nodes":[],"categories_segments":[],"categories_sizes":[],"default_left":[0,0,0,0,0,0,0,0,0,0,0,0,0,0,0],"id":14,"left_children":[1,3,5,7,9,11,13,-1,-1,-1,-1,-1,-1,-1,-1],"loss_changes":[3.318501E2,5.267183E1,1.6997159E2,3.3567993E1,2.3335052E1,8.739899E1,6.0200577E0,0E0,0E0,0E0,0E0,0E0,0E0,0E0,0E0],"parents":[2147483647,0,0,1,1,2,2,3,3,4,4,5,5,6,6],"right_children":[2,4,6,8,10,12,14,-1,-1,-1,-1,-1,-1,-1,-1],"split_conditions":[1.26E2,1.2E1,6.5E1,6.6E1,2.5E1,7.9E1,6.9E1,-6.5142706E-2,6.857002E-2,-1.7087478E-2,9.3254685E-2,-5.78835E-2,1.0102501E-1,3.3866532E-2,9.635412E-2],"split_indices":[21,22,12,10,10,10,12,0,0,0,0,0,0,0,0],"split_type":[0,0,0,0,0,0,0,0,0,0,0,0,0,0,0],"sum_hessian":[1.3335619E3,4.3505746E2,8.9850446E2,7.395579E1,3.6110168E2,7.940243E2,1.0448016E2,4.0993744E1,3.2962044E1,2.0002071E1,3.410996E2,7.586497E2,3.537461E1,2.061512E1,8.386504E1],"tree_param":{"num_deleted":"0","num_feature":"24","num_nodes":"15","size_leaf_vector":"1"}},{"base_weights":[2.2529264E-3,4.9340102E-1,-4.2764944E-1,6.239267E-1,-4.2831653E-1,-4.7319597E-1,3.7631145E-1,8.159242E-2,1.45638725E-2,-6.316226E-2,2.9837294E-2,-5.9841283E-2,-2.9216537E-2,-6.377612E-2,7.574217E-2],"categories":[],"categories_nodes":[],"categories_segments":[],"categories_sizes":[],"default_left":[0,0,0,0,0,0,0,0,0,0,0,0,0,0,0],"id":15,"left_children":[1,3,5,7,9,11,13,-1,-1,-1,-1,-1,-1,-1,-1],"loss_changes":[2.7940363E2,7.4574005E1,2.6016785E1,4.96008E1,1.1595202E1,1.4973007E1,1.5319714E1,0E0,0E0,0E0,0E0,0E0,0E0,0E0,0E0],"parents":[2147483647,0,0,1,1,2,2,3,3,4,4,5,5,6,6],"right_children":[2,4,6,8,10,12,14,-1,-1,-1,-1,-1,-1,-1,-1],"split_conditions":[5.9E1,1E0,2.059E3,9E0,1.32E2,2E0,4.9455455E-1,8.159242E-2,1.45638725E-2,-6.316226E-2,2.9837294E-2,-5.9841283E-2,-2.9216537E-2,-6.377612E-2,7.574217E-2],"split_indices":[10,7,0,12,19,4,13,0,0,0,0,0,0,0,0],"split_type":[0,0,0,0,0,0,0,0,0,0,0,0,0,0,0],"sum_hessian":[1.3212745E3,6.1663885E2,7.046356E2,5.4043085E2,7.620805E1,6.672457E2,3.7389847E1,3.8512537E2,1.5530547E2,5.965046E1,1.6557596E1,3.93063E2,2.7418277E2,1.0029511E1,2.7360336E1],"tree_param":{"num_deleted":"0","num_feature":"24","num_nodes":"15","size_leaf_vector":"1"}},{"base_weights":[-1.647497E-3,4.1892776E-1,-4.3899167E-1,5.3885823E-1,-6.789481E-1,-5.6021196E-1,7.208638E-2,-3.971393E-2,6.505317E-2,-7.058009E-2,-4.4302433E-3,-3.280292E-2,-6.0257144E-2,6.437781E-2,-5.464827E-2],"categories":[],"categories_nodes":[],"categories_segments":[],"categories_sizes":[],"default_left":[0,0,0,0,0,0,0,0,0,0,0,0,0,0,0],"id":16,"left_children":[1,3,5,7,9,11,13,-1,-1,-1,-1,-1,-1,-1,-1],"loss_changes":[2.4220093E2,8.874903E1,4.003183E1,6.3570404E1,1.102848E0,4.9350433E0,4.4428223E1,0E0,0E0,0E0,0E0,0E0,0E0,0E0,0E0],"parents":[2147483647,0,0,1,1,2,2,3,3,4,4,5,5,6,6],"right_children":[2,4,6,8,10,12,14,-1,-1,-1,-1,-1,-1,-1,-1],"split_conditions":[8E-1,7.9E1,1.48E2,4.2E0,1.52E2,3E1,2E0,-3.971393E-2,6.505317E-2,-7.058009E-2,-4.4302433E-3,-3.280292E-2,-6.0257144E-2,6.437781E-2,-5.464827E-2],"split_indices":[11,10,19,13,21,0,2,0,0,0,0,0,0,0,0],"split_type":[0,0,0,0,0,0,0,0,0,0,0,0,0,0,0],"sum_hessian":[1.3147665E3,6.7025397E2,6.445126E2,6.047059E2,6.5548065E1,5.208729E2,1.2363962E2,6.4184395E1,5.405215E2,6.2779644E1,2.7684174E0,8.1715256E1,4.3915768E2,6.4233345E1,5.940627E1],"tree_param":{"num_deleted":"0","num_feature":"24","num_nodes":"15","size_leaf_vector":"1"}},{"base_weights":[1.4909186E-3,7.735198E-1,-2.8657073E-1,-1.1423073E-1,8.287461E-1,-5.2587855E-1,4.6386096E-1,-4.8910376E-2,8.9083925E-2,1.6893867E-2,8.794187E-2,-5.765869E-2,8.489546E-2,1.712153E-2,9.629803E-2],"categories":[],"categories_nodes":[],"categories_segments":[],"categories_sizes":[],"default_left":[0,0,0,0,0,0,0,0,0,0,0,0,0,0,0],"id":17,"left_children":[1,3,5,7,9,11,13,-1,-1,-1,-1,-1,-1,-1,-1],"loss_changes":[2.8754498E2,1.7319916E1,1.6934532E2,8.519558E0,1.0914276E1,5.0295776E1,3.3168095E1,0E0,0E0,0E0,0E0,0E0,0E0,0E0,0E0],"parents":[2147483647,0,0,1,1,2,2,3,3,4,4,5,5,6,6],"right_children":[2,4,6,8,10,12,14,-1,-1,-1,-1,-1,-1,-1,-1],"split_conditions":[1.17E2,2.7E1,7.2E1,1.3E2,1.4836891E0,6.9E1,7.9E1,-4.8910376E-2,8.9083925E-2,1.6893867E-2,8.794187E-2,-5.765869E-2,8.489546E-2,1.712153E-2,9.629803E-2],"split_indices":[20,10,10,9,11,12,10,0,0,0,0,0,0,0,0],"split_type":[0,0,0,0,0,0,0,0,0,0,0,0,0,0,0],"sum_hessian":[1.2909684E3,3.5034082E2,9.406275E2,2.0455442E1,3.2988538E2,7.134213E2,2.2720624E2,1.5272455E1,5.1829877E0,2.3837053E1,3.0604834E2,6.8860394E2,2.4817358E1,1.4407477E2,8.313146E1],"tree_param":{"num_deleted":"0","num_feature":"24","num_nodes":"15","size_leaf_vector":"1"}},{"base_weights":[1.2426519E-2,-3.2350925E-1,6.1306834E-1,3.444392E-1,-4.2738804E-1,-6.19608E-1,7.6715195E-1,7.2600745E-2,-5.2188493E-2,-1.5651979E-2,-5.094809E-2,4.972087E-3,-6.359971E-2,7.918478E-2,-6.1220117E-2],"categories":[],"categories_nodes":[],"categories_segments":[],"categories_sizes":[],"default_left":[0,0,0,0,0,0,0,0,0,0,0,0,0,0,0],"id":18,"left_children":[1,3,5,7,9,11,13,-1,-1,-1,-1,-1,-1,-1,-1],"loss_changes":[2.6103E2,5.771412E1,8.860661E1,3.74735E1,1.5895935E1,6.032448E-1,1.454982E1,0E0,0E0,0E0,0E0,0E0,0E0,0E0,0E0],"parents":[2147483647,0,0,1,1,2,2,3,3,4,4,5,5,6,6],"right_children":[2,4,6,8,10,12,14,-1,-1,-1,-1,-1,-1,-1,-1],"split_conditions":[1E0,4.2E1,1.07E2,1E0,6E1,1.64E2,2E0,7.2600745E-2,-5.2188493E-2,-1.5651979E-2,-5.094809E-2,4.972087E-3,-6.359971E-2,7.918478E-2,-6.1220117E-2],"split_indices":[2,10,19,7,10,16,7,0,0,0,0,0,0,0,0],"split_type":[0,0,0,0,0,0,0,0,0,0,0,0,0,0,0],"sum_hessian":[1.2916725E3,8.286656E2,4.630069E2,1.1121687E2,7.174487E2,5.110925E1,4.1189764E2,7.732252E1,3.3894356E1,1.675426E2,5.499061E2,1.1729391E0,4.993631E1,4.050712E2,6.8264256E0],"tree_param":{"num_deleted":"0","num_feature":"24","num_nodes":"15","size_leaf_vector":"1"}},{"base_weights":[-1.210471E-2,-4.685064E-1,3.353551E-1,-6.118006E-1,-2.753364E-1,-5.146728E-1,4.6786293E-1,1.6991865E-2,-6.1778594E-2,-3.3988606E-2,6.833822E-2,-6.258338E-2,3.9118007E-3,5.348676E-2,-6.007207E-2],"categories":[],"categories_nodes":[],"categories_segments":[],"categories_sizes":[],"default_left":[0,0,0,0,0,0,0,0,0,0,0,0,0,0,0],"id":19,"left_children":[1,3,5,7,9,11,13,-1,-1,-1,-1,-1,-1,-1,-1],"loss_changes":[2.03891E2,1.5214119E1,8.2464905E1,1.5939484E0,1.4991367E1,6.114393E0,4.5577972E1,0E0,0E0,0E0,0E0,0E0,0E0,0E0,0E0],"parents":[2147483647,0,0,1,1,2,2,3,3,4,4,5,5,6,6],"right_children":[2,4,6,8,10,12,14,-1,-1,-1,-1,-1,-1,-1,-1],"split_conditions":[1.35E2,1.23E2,4.3E1,3.74E2,6E1,1.58E2,7.9E1,1.6991865E-2,-6.1778594E-2,-3.3988606E-2,6.833822E-2,-6.258338E-2,3.9118007E-3,5.348676E-2,-6.007207E-2],"split_indices":[20,20,10,1,22,21,10,0,0,0,0,0,0,0,0],"split_type":[0,0,0,0,0,0,0,0,0,0,0,0,0,0,0],"sum_hessian":[1.2837289E3,5.547263E2,7.290025E2,3.172339E2,2.3749245E2,9.79266E1,6.310759E2,2.2023704E0,3.150315E2,2.2311574E2,1.4376701E1,8.144772E1,1.6478876E1,5.943097E2,3.676623E1],"tree_param":{"num_deleted":"0","num_feature":"24","num_nodes":"15","size_leaf_vector":"1"}},{"base_weights":[-3.1256177E-3,6.2170136E-1,-3.2095784E-1,2.1705796E-1,8.4750724E-1,-4.805705E-1,7.853167E-1,-1.32897515E-2,7.266539E-2,-4.9913414E-2,8.5997395E-2,-5.7646256E-2,5.8946647E-2,8.047674E-2,-4.328272E-2],"categories":[],"categories_nodes":[],"categories_segments":[],"categories_sizes":[],"default_left":[0,0,0,0,0,0,0,0,0,0,0,0,0,0,0],"id":20,"left_children":[1,3,5,7,9,11,13,-1,-1,-1,-1,-1,-1,-1,-1],"loss_changes":[2.5200424E2,3.8909393E1,1.4889645E2,2.7665005E1,5.033661E0,7.5826004E1,2.8701172E0,0E0,0E0,0E0,0E0,0E0,0E0,0E0,0E0],"parents":[2147483647,0,0,1,1,2,2,3,3,4,4,5,5,6,6],"right_children":[2,4,6,8,10,12,14,-1,-1,-1,-1,-1,-1,-1,-1],"split_conditions":[1.26E2,1E0,6.5E1,4.3E1,1.8E1,7.7E1,1.48E2,-1.32897515E-2,7.266539E-2,-4.9913414E-2,8.5997395E-2,-5.7646256E-2,5.8946647E-2,8.047674E-2,-4.328272E-2],"split_indices":[21,7,12,22,10,10,15,0,0,0,0,0,0,0,0],"split_type":[0,0,0,0,0,0,0,0,0,0,0,0,0,0,0],"sum_hessian":[1.2669618E3,4.2685352E2,8.401082E2,1.5358713E2,2.732664E2,7.346753E2,1.0543294E2,9.149433E1,6.20928E1,2.148502E0,2.711179E2,6.746751E2,6.0000183E1,1.04109924E2,1.3230174E0],"tree_param":{"num_deleted":"0","num_feature":"24","num_nodes":"15","size_leaf_vector":"1"}},{"base_weights":[4.6262094E-3,-3.203458E-1,5.8305806E-1,2.8569084E-1,-4.1924188E-1,-5.963631E-1,7.253165E-1,6.335771E-2,-5.1792443E-2,-5.462389E-2,-2.6440842E-2,-6.269263E-2,9.890842E-3,3.8015228E-2,8.293973E-2],"categories":[],"categories_nodes":[],"categories_segments":[],"categories_sizes":[],"default_left":[0,0,0,0,0,0,0,0,0,0,0,0,0,0,0],"id":21,"left_children":[1,3,5,7,9,11,13,-1,-1,-1,-1,-1,-1,-1,-1],"loss_changes":[2.3476831E2,4.8048363E1,7.581143E1,3.1858562E1,1.3381958E1,1.1012268E0,1.4103546E1,0E0,0E0,0E0,0E0,0E0,0E0,0E0,0E0],"parents":[2147483647,0,0,1,1,2,2,3,3,4,4,5,5,6,6],"right_children":[2,4,6,8,10,12,14,-1,-1,-1,-1,-1,-1,-1,-1],"split_conditions":[1E0,4.3E1,1.07E2,1E0,2E0,2.49E3,2E0,6.335771E-2,-5.1792443E-2,-5.462389E-2,-2.6440842E-2,-6.269263E-2,9.890842E-3,3.8015228E-2,8.293973E-2],"split_indices":[2,10,19,7,4,1,2,0,0,0,0,0,0,0,0],"split_type":[0,0,0,0,0,0,0,0,0,0,0,0,0,0,0],"sum_hessian":[1.2469457E3,7.9868066E2,4.48265E2,1.1178317E2,6.868975E2,4.790525E1,4.0035977E2,7.815943E1,3.362374E1,3.7598245E2,3.1091507E2,4.598224E1,1.9230126E0,9.383293E1,3.0652682E2],"tree_param":{"num_deleted":"0","num_feature":"24","num_nodes":"15","size_leaf_vector":"1"}},{"base_weights":[-7.3438063E-3,-5.581817E-1,3.1432256E-1,-5.763016E-1,-2.1386535E-1,4.0546858E-1,-6.122499E-1,-5.847451E-2,6.628489E-2,3.2605965E-2,-5.9476107E-2,4.761558E-2,-6.647454E-2,-1.5475069E-2,-6.3568145E-2],"categories":[],"categories_nodes":[],"categories_segments":[],"categories_sizes":[],"default_left":[0,0,0,0,0,0,0,0,0,0,0,0,0,0,0],"id":22,"left_children":[1,3,5,7,9,11,13,-1,-1,-1,-1,-1,-1,-1,-1],"loss_changes":[2.2161313E2,2.7535706E0,6.69362E1,4.964676E0,5.2618523E0,5.474881E1,6.640053E-1,0E0,0E0,0E0,0E0,0E0,0E0,0E0,0E0],"parents":[2147483647,0,0,1,1,2,2,3,3,4,4,5,5,6,6],"right_children":[2,4,6,8,10,12,14,-1,-1,-1,-1,-1,-1,-1,-1],"split_conditions":[2E0,1.24E2,6.8E1,1.5E2,2E0,7.9E1,6.9E1,-5.847451E-2,6.628489E-2,3.2605965E-2,-5.9476107E-2,4.761558E-2,-6.647454E-2,-1.5475069E-2,-6.3568145E-2],"split_indices":[12,15,12,9,2,10,12,0,0,0,0,0,0,0,0],"split_type":[0,0,0,0,0,0,0,0,0,0,0,0,0,0,0],"sum_hessian":[1.2487468E3,4.6010477E2,7.8864215E2,4.364619E2,2.3642832E1,7.1852405E2,7.0118095E1,4.3403256E2,2.4293768E0,9.839363E0,1.3803469E1,6.745269E2,4.399714E1,3.786732E0,6.633137E1],"tree_param":{"num_deleted":"0","num_feature":"24","num_nodes":"15","size_leaf_vector":"1"}},{"base_weights":[-8.757759E-3,6.165497E-1,-2.9942173E-1,-1.4836259E-1,7.056909E-1,-4.5701274E-1,7.300973E-1,8.27501E-2,-4.6247102E-2,-6.006042E-3,7.5778596E-2,-5.6393463E-2,5.3712983E-2,2.4178592E-2,8.3797194E-2],"categories":[],"categories_nodes":[],"categories_segments":[],"categories_sizes":[],"default_left":[0,0,0,0,0,0,0,0,0,0,0,0,0,0,0],"id":23,"left_children":[1,3,5,7,9,11,13,-1,-1,-1,-1,-1,-1,-1,-1],"loss_changes":[2.2532773E2,2.6929367E1,1.3764201E2,1.3222518E1,1.4108231E1,7.838539E1,5.7358475E0,0E0,0E0,0E0,0E0,0E0,0E0,0E0,0E0],"parents":[2147483647,0,0,1,1,2,2,3,3,4,4,5,5,6,6],"right_children":[2,4,6,8,10,12,14,-1,-1,-1,-1,-1,-1,-1,-1],"split_conditions":[1.21E2,2.9E1,6.5E1,5.52E2,1.1E1,7.7E1,6.9E1,8.27501E-2,-4.6247102E-2,-6.006042E-3,7.5778596E-2,-5.6393463E-2,5.3712983E-2,2.4178592E-2,8.3797194E-2],"split_indices":[20,10,12,1,22,10,12,0,0,0,0,0,0,0,0],"split_type":[0,0,0,0,0,0,0,0,0,0,0,0,0,0,0],"sum_hessian":[1.237722E3,3.924089E2,8.453132E2,4.088807E1,3.515208E2,7.3357855E2,1.1173458E2,9.558266E0,3.1329805E1,2.238139E1,3.2913943E2,6.627331E2,7.084546E1,2.080389E1,9.093069E1],"tree_param":{"num_deleted":"0","num_feature":"24","num_nodes":"15","size_leaf_vector":"1"}},{"base_weights":[1.4051799E-2,-2.9631135E-1,5.478023E-1,-5.552888E-1,-1.328783E-1,-5.788652E-1,6.7473525E-1,-5.7686288E-2,7.2871074E-2,4.9134955E-2,-2.8385332E-2,-6.2041502E-2,5.643009E-2,3.7783276E-2,7.720714E-2],"categories":[],"categories_nodes":[],"categories_segments":[],"categories_sizes":[],"default_left":[0,0,0,0,0,0,0,0,0,0,0,0,0,0,0],"id":24,"left_children":[1,3,5,7,9,11,13,-1,-1,-1,-1,-1,-1,-1,-1],"loss_changes":[2.0282036E2,3.2694878E1,6.4767975E1,8.709381E0,4.4996815E1,2.5406628E0,1.141362E1,0E0,0E0,0E0,0E0,0E0,0E0,0E0,0E0],"parents":[2147483647,0,0,1,1,2,2,3,3,4,4,5,5,6,6],"right_children":[2,4,6,8,10,12,14,-1,-1,-1,-1,-1,-1,-1,-1],"split_conditions":[1E0,5E-1,1.07E2,2.983E3,1.49E2,9E0,2E0,-5.7686288E-2,7.2871074E-2,4.9134955E-2,-2.8385332E-2,-6.2041502E-2,5.643009E-2,3.7783276E-2,7.720714E-2],"split_indices":[2,11,19,1,16,17,2,0,0,0,0,0,0,0,0],"split_type":[0,0,0,0,0,0,0,0,0,0,0,0,0,0,0],"sum_hessian":[1.222363E3,7.732067E2,4.4915634E2,2.9823047E2,4.749763E2,4.511868E1,4.0403766E2,2.9384393E2,4.386506E0,9.206516E1,3.829111E2,4.3977543E1,1.141137E0,1.00960785E2,3.0307687E2],"tree_param":{"num_deleted":"0","num_feature":"24","num_nodes":"15","size_leaf_vector":"1"}},{"base_weights":[1.8147014E-3,3.4077844E-1,-3.785531E-1,-2.7579775E-1,4.649608E-1,-4.4699112E-1,5.5305153E-1,-4.5206077E-2,4.2679947E-2,5.0859567E-2,-6.428596E-2,-5.5246174E-2,-1.8647525E-2,7.727471E-2,-5.8387794E-2],"categories":[],"categories_nodes":[],"categories_segments":[],"categories_sizes":[],"default_left":[0,0,0,0,0,0,0,0,0,0,0,0,0,0,0],"id":25,"left_children":[1,3,5,7,9,11,13,-1,-1,-1,-1,-1,-1,-1,-1],"loss_changes":[1.5995865E2,5.0359047E1,3.752118E1,1.3890587E1,2.674083E1,1.4876442E1,1.0556167E1,0E0,0E0,0E0,0E0,0E0,0E0,0E0,0E0],"parents":[2147483647,0,0,1,1,2,2,3,3,4,4,5,5,6,6],"right_children":[2,4,6,8,10,12,14,-1,-1,-1,-1,-1,-1,-1,-1],"split_conditions":[8E-1,4.6E0,1.47E2,5.61E2,2E0,1.4E2,2E0,-4.5206077E-2,4.2679947E-2,5.0859567E-2,-6.428596E-2,-5.5246174E-2,-1.8647525E-2,7.727471E-2,-5.8387794E-2],"split_indices":[11,13,9,0,2,19,2,0,0,0,0,0,0,0,0],"split_type":[0,0,0,0,0,0,0,0,0,0,0,0,0,0,0],"sum_hessian":[1.2386537E3,6.550297E2,5.836239E2,1.0960591E2,5.454238E2,5.4416815E2,3.9455772E1,8.790857E1,2.1697342E1,5.252752E2,2.0148628E1,3.8655115E2,1.5761697E2,3.3334644E1,6.121128E0],"tree_param":{"num_deleted":"0","num_feature":"24","num_nodes":"15","size_leaf_vector":"1"}},{"base_weights":[-7.963956E-3,7.177494E-1,-2.3119216E-1,7.3808E-1,-5.6260026E-1,-3.5250276E-1,7.4987596E-1,7.508964E-2,-5.5380147E-2,-1.9047638E-2,-6.637387E-2,-4.131593E-2,4.0879823E-2,7.831296E-2,-2.5579933E-2],"categories":[],"categories_nodes":[],"categories_segments":[],"categories_sizes":[],"default_left":[0,0,0,0,0,0,0,0,0,0,0,0,0,0,0],"id":26,"left_children":[1,3,5,7,9,11,13,-1,-1,-1,-1,-1,-1,-1,-1],"loss_changes":[1.9127382E2,7.645172E0,1.0772562E2,4.94989E0,5.832529E-2,3.730735E1,3.5339317E0,0E0,0E0,0E0,0E0,0E0,0E0,0E0,0E0],"parents":[2147483647,0,0,1,1,2,2,3,3,4,4,5,5,6,6],"right_children":[2,4,6,8,10,12,14,-1,-1,-1,-1,-1,-1,-1,-1],"split_conditions":[1.11E2,2.12E2,6.8E1,1.27E2,3.13E2,1E0,5E-1,7.508964E-2,-5.5380147E-2,-1.9047638E-2,-6.637387E-2,-4.131593E-2,4.0879823E-2,7.831296E-2,-2.5579933E-2],"split_indices":[20,16,12,21,0,7,11,0,0,0,0,0,0,0,0],"split_type":[0,0,0,0,0,0,0,0,0,0,0,0,0,0,0],"sum_hessian":[1.1786805E3,2.7675064E2,9.019298E2,2.7284174E2,3.9089096E0,8.032477E2,9.8682144E1,2.705762E2,2.265541E0,1.451533E0,2.4573765E0,7.443954E2,5.8852295E1,9.573777E1,2.944373E0],"tree_param":{"num_deleted":"0","num_feature":"24","num_nodes":"15","size_leaf_vector":"1"}},{"base_weights":[1.2113534E-2,4.109613E-1,-3.7690333E-1,6.105691E-2,6.594536E-1,-4.265669E-1,5.690841E-1,4.651444E-2,-2.2576941E-2,-5.4899614E-2,6.914863E-2,-4.7181882E-2,2.32276E-2,-5.1115073E-2,8.356746E-2],"categories":[],"categories_nodes":[],"categories_segments":[],"categories_sizes":[],"default_left":[0,0,0,0,0,0,0,0,0,0,0,0,0,0,0],"id":27,"left_children":[1,3,5,7,9,11,13,-1,-1,-1,-1,-1,-1,-1,-1],"loss_changes":[1.87089E2,5.172531E1,2.8921692E1,2.8887518E1,1.38517E1,1.7418312E1,9.319201E0,0E0,0E0,0E0,0E0,0E0,0E0,0E0,0E0],"parents":[2147483647,0,0,1,1,2,2,3,3,4,4,5,5,6,6],"right_children":[2,4,6,8,10,12,14,-1,-1,-1,-1,-1,-1,-1,-1],"split_conditions":[5.9E1,1E0,4E0,1.59E2,1.11E2,1.971E3,9.2E1,4.651444E-2,-2.2576941E-2,-5.4899614E-2,6.914863E-2,-4.7181882E-2,2.32276E-2,-5.1115073E-2,8.356746E-2],"split_indices":[10,2,2,16,19,0,19,0,0,0,0,0,0,0,0],"split_type":[0,0,0,0,0,0,0,0,0,0,0,0,0,0,0],"sum_hessian":[1.2037944E3,5.9435895E2,6.0943555E2,2.4733284E2,3.470261E2,5.795583E2,2.9877264E1,1.024198E2,1.4491304E2,8.544438E0,3.3848166E2,5.4257587E2,3.6982376E1,5.7323203E0,2.4144943E1],"tree_param":{"num_deleted":"0","num_feature":"24","num_nodes":"15","size_leaf_vector":"1"}},{"base_weights":[-1.4626589E-3,-4.4994956E-1,3.1610084E-1,-5.1397103E-1,-1.2597343E-2,4.0719336E-1,-5.9962106E-1,3.910433E-2,-5.3084344E-2,7.771434E-2,-6.0496714E-2,-2.5269433E-4,5.397588E-2,-6.1258733E-2,-2.1188958E-2],"categories":[],"categories_nodes":[],"categories_segments":[],"categories_sizes":[],"default_left":[0,0,0,0,0,0,0,0,0,0,0,0,0,0,0],"id":28,"left_children":[1,3,5,7,9,11,13,-1,-1,-1,-1,-1,-1,-1,-1],"loss_changes":[1.7071529E2,1.3906532E1,5.8781464E1,6.8258133E0,3.0632557E1,3.4700874E1,1.9143295E-1,0E0,0E0,0E0,0E0,0E0,0E0,0E0,0E0],"parents":[2147483647,0,0,1,1,2,2,3,3,4,4,5,5,6,6],"right_children":[2,4,6,8,10,12,14,-1,-1,-1,-1,-1,-1,-1,-1],"split_conditions":[7E0,1.51E2,6.8E1,1E0,2E0,1.38E2,1.2E1,3.910433E-2,-5.3084344E-2,7.771434E-2,-6.0496714E-2,-2.5269433E-4,5.397588E-2,-6.1258733E-2,-2.1188958E-2],"split_indices":[12,21,12,22,2,19,3,0,0,0,0,0,0,0,0],"split_type":[0,0,0,0,0,0,0,0,0,0,0,0,0,0,0],"sum_hessian":[1.1966505E3,4.9589444E2,7.007561E2,4.3241983E2,6.3474598E1,6.3785956E2,6.2896515E1,7.508294E0,4.2491153E2,2.7071394E1,3.6403202E1,1.5616893E2,4.8169064E2,6.030007E1,2.5964456E0],"tree_param":{"num_deleted":"0","num_feature":"24","num_nodes":"15","size_leaf_vector":"1"}},{"base_weights":[-1.2400053E-2,7.030427E-1,-2.2426629E-1,7.18048E-1,-6.394953E-2,-4.5353112E-1,3.4776062E-1,-4.2481713E-2,7.3381275E-2,-5.3162243E-2,3.127875E-2,7.671314E-2,1.1815403E-2],"categories":[],"categories_nodes":[],"categories_segments":[],"categories_sizes":[],"default_left":[0,0,0,0,0,0,0,0,0,0,0,0,0],"id":29,"left_children":[1,3,5,7,-1,9,11,-1,-1,-1,-1,-1,-1],"loss_changes":[1.7398212E2,5.742218E0,1.16289375E2,4.99292E0,0E0,3.8022064E1,2.4360268E1,0E0,0E0,0E0,0E0,0E0,0E0],"parents":[2147483647,0,0,1,1,2,2,3,3,5,5,6,6],"right_children":[2,4,6,8,-1,10,12,-1,-1,-1,-1,-1,-1],"split_conditions":[1.1E2,2.28E2,7E1,2.5E1,-6.394953E-2,1E0,1.44E2,-4.2481713E-2,7.3381275E-2,-5.3162243E-2,3.127875E-2,7.671314E-2,1.1815403E-2],"split_indices":[20,16,10,10,0,7,16,0,0,0,0,0,0],"split_type":[0,0,0,0,0,0,0,0,0,0,0,0,0],"sum_hessian":[1.1457644E3,2.61248E2,8.845164E2,2.5882037E2,2.4276228E0,6.315873E2,2.5292911E2,3.1685607E0,2.5565181E2,5.734559E2,5.8131435E1,8.865743E1,1.6427168E2],"tree_param":{"num_deleted":"0","num_feature":"24","num_nodes":"13","size_leaf_vector":"1"}},{"base_weights":[1.1252523E-2,3.9489943E-1,-3.5745862E-1,5.291165E-1,-1.995096E-1,-4.2104006E-1,3.638601E-1,6.8213575E-2,1.8397221E-2,-4.3424796E-2,6.3643426E-2,-4.7281094E-2,1.9335447E-2,-5.837507E-2,8.002361E-2],"categories":[],"categories_nodes":[],"categories_segments":[],"categories_sizes":[],"default_left":[0,0,0,0,0,0,0,0,0,0,0,0,0,0,0],"id":30,"left_children":[1,3,5,7,9,11,13,-1,-1,-1,-1,-1,-1,-1,-1],"loss_changes":[1.6436877E2,4.5535873E1,2.7328712E1,2.4423615E1,2.100225E1,1.742688E1,2.0537416E1,0E0,0E0,0E0,0E0,0E0,0E0,0E0,0E0],"parents":[2147483647,0,0,1,1,2,2,3,3,4,4,5,5,6,6],"right_children":[2,4,6,8,10,12,14,-1,-1,-1,-1,-1,-1,-1,-1],"split_conditions":[5.9E1,4.8E1,3E0,1.49E2,1.43E2,1.971E3,9.8E1,6.8213575E-2,1.8397221E-2,-4.3424796E-2,6.3643426E-2,-4.7281094E-2,1.9335447E-2,-5.837507E-2,8.002361E-2],"split_indices":[10,22,2,19,19,0,19,0,0,0,0,0,0,0,0],"split_type":[0,0,0,0,0,0,0,0,0,0,0,0,0,0,0],"sum_hessian":[1.1599894E3,5.6844586E2,5.9154346E2,4.638245E2,1.0462137E2,5.440076E2,4.7535847E1,3.206766E2,1.4314789E2,8.205916E1,2.2562206E1,5.0194275E2,4.2064888E1,1.4881735E1,3.265411E1],"tree_param":{"num_deleted":"0","num_feature":"24","num_nodes":"15","size_leaf_vector":"1"}},{"base_weights":[-5.6114397E-4,-5.0396866E-1,2.528416E-1,-5.2154475E-1,4.2565814E-1,-1.5272905E-1,4.3877548E-1,-5.3949125E-2,2.2585165E-2,-4.7250852E-2,1.20089404E-1,-4.597925E-2,6.997578E-3,5.0131798E-2,-6.288186E-2],"categories":[],"categories_nodes":[],"categories_segments":[],"categories_sizes":[],"default_left":[0,0,0,0,0,0,0,0,0,0,0,0,0,0,0],"id":31,"left_children":[1,3,5,7,9,11,13,-1,-1,-1,-1,-1,-1,-1,-1],"loss_changes":[1.4998747E2,6.6544876E0,5.9044E1,5.310425E0,6.0373116E0,1.689476E1,3.6137794E1,0E0,0E0,0E0,0E0,0E0,0E0,0E0,0E0],"parents":[2147483647,0,0,1,1,2,2,3,3,4,4,5,5,6,6],"right_children":[2,4,6,8,10,12,14,-1,-1,-1,-1,-1,-1,-1,-1],"split_conditions":[2E0,3.25E2,1.38E2,1.37E2,8.264903E0,5.5E0,7.9E1,-5.3949125E-2,2.2585165E-2,-4.7250852E-2,1.20089404E-1,-4.597925E-2,6.997578E-3,5.0131798E-2,-6.288186E-2],"split_indices":[12,3,20,15,13,13,10,0,0,0,0,0,0,0,0],"split_type":[0,0,0,0,0,0,0,0,0,0,0,0,0,0,0],"sum_hessian":[1.1737755E3,3.9268408E2,7.8109143E2,3.8582837E2,6.855737E0,2.455849E2,5.3550653E2,3.7705273E2,8.775614E0,3.3569572E0,3.4987803E0,1.0279184E2,1.4279306E2,5.063723E2,2.9134228E1],"tree_param":{"num_deleted":"0","num_feature":"24","num_nodes":"15","size_leaf_vector":"1"}},{"base_weights":[2.1811011E-3,5.3437173E-1,-2.7964413E-1,2.2607377E-1,7.329907E-1,-4.252049E-1,6.539294E-1,6.7062944E-2,-2.3605831E-2,7.444078E-2,-5.0126087E-2,-5.2570935E-2,5.0721545E-2,6.771297E-2,-4.4861484E-2],"categories":[],"categories_nodes":[],"categories_segments":[],"categories_sizes":[],"default_left":[0,0,0,0,0,0,0,0,0,0,0,0,0,0,0],"id":32,"left_children":[1,3,5,7,9,11,13,-1,-1,-1,-1,-1,-1,-1,-1],"loss_changes":[1.6718282E2,2.3465256E1,9.930988E1,3.1519993E1,3.6742249E0,5.940499E1,2.8282814E0,0E0,0E0,0E0,0E0,0E0,0E0,0E0,0E0],"parents":[2147483647,0,0,1,1,2,2,3,3,4,4,5,5,6,6],"right_children":[2,4,6,8,10,12,14,-1,-1,-1,-1,-1,-1,-1,-1],"split_conditions":[1.26E2,1.26E2,6.5E1,1.09E2,5.9E1,7.7E1,1.48E2,6.7062944E-2,-2.3605831E-2,7.444078E-2,-5.0126087E-2,-5.2570935E-2,5.0721545E-2,6.771297E-2,-4.4861484E-2],"split_indices":[21,9,12,20,12,10,15,0,0,0,0,0,0,0,0],"split_type":[0,0,0,0,0,0,0,0,0,0,0,0,0,0,0],"sum_hessian":[1.1126691E3,3.8491345E2,7.277556E2,1.5165364E2,2.3325981E2,6.300622E2,9.7693405E1,7.706679E1,7.458685E1,2.3151512E2,1.7446887E0,5.691504E2,6.0911823E1,9.605795E1,1.6354525E0],"tree_param":{"num_deleted":"0","num_feature":"24","num_nodes":"15","size_leaf_vector":"1"}},{"base_weights":[-8.723901E-4,-2.7192423E-1,4.8296478E-1,1.2785762E-2,-4.3481708E-1,-5.2677894E-1,5.927778E-1,7.728941E-2,-1.2340564E-2,-5.2168947E-2,2.5901676E-3,-5.6670636E-2,3.3012416E-2,6.140859E-2,-6.2108E-2],"categories":[],"categories_nodes":[],"categories_segments":[],"categories_sizes":[],"default_left":[0,0,0,0,0,0,0,0,0,0,0,0,0,0,0],"id":33,"left_children":[1,3,5,7,9,11,13,-1,-1,-1,-1,-1,-1,-1,-1],"loss_changes":[1.4721173E2,3.337205E1,4.500386E1,2.7300362E1,1.8330757E1,1.557806E0,9.795952E0,0E0,0E0,0E0,0E0,0E0,0E0,0E0,0E0],"parents":[2147483647,0,0,1,1,2,2,3,3,4,4,5,5,6,6],"right_children":[2,4,6,8,10,12,14,-1,-1,-1,-1,-1,-1,-1,-1],"split_conditions":[1E0,6E1,1.07E2,1.48E2,6E0,1.715E3,3.25E2,7.728941E-2,-1.2340564E-2,-5.2168947E-2,2.5901676E-3,-5.6670636E-2,3.3012416E-2,6.140859E-2,-6.2108E-2],"split_indices":[2,10,19,16,4,0,3,0,0,0,0,0,0,0,0],"split_type":[0,0,0,0,0,0,0,0,0,0,0,0,0,0,0],"sum_hessian":[1.1205103E3,7.184585E2,4.0205176E2,2.6179874E2,4.5665976E2,3.906327E1,3.6298846E2,3.9069557E1,2.2272917E2,3.841018E2,7.255797E1,3.764773E1,1.41554E0,3.5721207E2,5.7764044E0],"tree_param":{"num_deleted":"0","num_feature":"24","num_nodes":"15","size_leaf_vector":"1"}},{"base_weights":[4.5342357E-3,-5.04861E-1,2.4890672E-1,-5.207841E-1,2.8303745E-1,-1.957896E-1,3.8671938E-1,-5.4537833E-2,-1.1728233E-2,-4.6978366E-2,9.280779E-2,-4.9018588E-2,2.517725E-3,4.4583354E-2,-5.8159232E-2],"categories":[],"categories_nodes":[],"categories_segments":[],"categories_sizes":[],"default_left":[0,0,0,0,0,0,0,0,0,0,0,0,0,0,0],"id":34,"left_children":[1,3,5,7,9,11,13,-1,-1,-1,-1,-1,-1,-1,-1],"loss_changes":[1.40267E2,4.7305603E0,4.674287E1,3.4930267E0,4.2647057E0,1.1774906E1,3.3554153E1,0E0,0E0,0E0,0E0,0E0,0E0,0E0,0E0],"parents":[2147483647,0,0,1,1,2,2,3,3,4,4,5,5,6,6],"right_children":[2,4,6,8,10,12,14,-1,-1,-1,-1,-1,-1,-1,-1],"split_conditions":[2E0,3.25E2,1.35E2,1.24E2,8.264903E0,5.45701E0,7.9E1,-5.4537833E-2,-1.1728233E-2,-4.6978366E-2,9.280779E-2,-4.9018588E-2,2.517725E-3,4.4583354E-2,-5.8159232E-2],"split_indices":[12,3,20,15,13,13,10,0,0,0,0,0,0,0,0],"split_type":[0,0,0,0,0,0,0,0,0,0,0,0,0,0,0],"sum_hessian":[1.1247946E3,3.643143E2,7.604803E2,3.574298E2,6.884492E0,1.798184E2,5.8066187E2,3.3656396E2,2.0865843E1,3.3022103E0,3.5822818E0,7.657647E1,1.03241936E2,5.4776135E2,3.290053E1],"tree_param":{"num_deleted":"0","num_feature":"24","num_nodes":"15","size_leaf_vector":"1"}},{"base_weights":[-8.582019E-3,4.3273133E-1,-2.938656E-1,7.998022E-2,6.871274E-1,-4.847831E-1,4.0598413E-1,6.657875E-2,-2.3005737E-2,-4.9241476E-2,6.990047E-2,-5.5029E-2,4.972083E-2,5.3810876E-2,-3.1539124E-2],"categories":[],"categories_nodes":[],"categories_segments":[],"categories_sizes":[],"default_left":[0,0,0,0,0,0,0,0,0,0,0,0,0,0,0],"id":35,"left_children":[1,3,5,7,9,11,13,-1,-1,-1,-1,-1,-1,-1,-1],"loss_changes":[1.363858E2,3.8114456E1,8.810668E1,3.272719E1,3.804451E0,3.3555275E1,1.3662033E1,0E0,0E0,0E0,0E0,0E0,0E0,0E0,0E0],"parents":[2147483647,0,0,1,1,2,2,3,3,4,4,5,5,6,6],"right_children":[2,4,6,8,10,12,14,-1,-1,-1,-1,-1,-1,-1,-1],"split_conditions":[1.29E2,1.26E2,5.2E1,1.07E2,1.8E1,7.8E1,1.51E2,6.657875E-2,-2.3005737E-2,-4.9241476E-2,6.990047E-2,-5.5029E-2,4.972083E-2,5.3810876E-2,-3.1539124E-2],"split_indices":[21,9,12,19,10,10,21,0,0,0,0,0,0,0,0],"split_type":[0,0,0,0,0,0,0,0,0,0,0,0,0,0,0],"sum_hessian":[1.0812816E3,4.243404E2,6.5694116E2,1.7835034E2,2.4599005E2,5.1638086E2,1.405603E2,6.132709E1,1.17023254E2,2.0489373E0,2.4394112E2,4.8450034E2,3.1880537E1,1.1901582E2,2.1544477E1],"tree_param":{"num_deleted":"0","num_feature":"24","num_nodes":"15","size_leaf_vector":"1"}},{"base_weights":[1.4732095E-2,-1.9625485E-1,5.9385234E-1,1.1026773E-1,-4.22748E-1,-4.609732E-1,6.8180174E-1,4.78664E-2,-1.4227487E-2,-5.694151E-2,-1.781818E-2,4.3890752E-2,-5.384889E-2,6.973865E-2,-2.0216297E-2],"categories":[],"categories_nodes":[],"categories_segments":[],"categories_sizes":[],"default_left":[0,0,0,0,0,0,0,0,0,0,0,0,0,0,0],"id":36,"left_children":[1,3,5,7,9,11,13,-1,-1,-1,-1,-1,-1,-1,-1],"loss_changes":[1.3217197E2,5.5094933E1,2.7111427E1,3.1488556E1,1.6261993E1,1.8286424E0,3.8196259E0,0E0,0E0,0E0,0E0,0E0,0E0,0E0,0E0],"parents":[2147483647,0,0,1,1,2,2,3,3,4,4,5,5,6,6],"right_children":[2,4,6,8,10,12,14,-1,-1,-1,-1,-1,-1,-1,-1],"split_conditions":[2E0,6E1,1.07E2,1.59E2,3E0,1E0,3.25E2,4.78664E-2,-1.4227487E-2,-5.694151E-2,-1.781818E-2,4.3890752E-2,-5.384889E-2,6.973865E-2,-2.0216297E-2],"split_indices":[2,10,19,16,4,7,3,0,0,0,0,0,0,0,0],"split_type":[0,0,0,0,0,0,0,0,0,0,0,0,0,0,0],"sum_hessian":[1.0797664E3,7.919147E2,2.8785175E2,3.3672455E2,4.551901E2,2.1827017E1,2.6602475E2,1.3658539E2,2.0013916E2,2.837163E2,1.7147379E2,1.3613148E0,2.0465702E1,2.6162326E2,4.401483E0],"tree_param":{"num_deleted":"0","num_feature":"24","num_nodes":"15","size_leaf_vector":"1"}},{"base_weights":[-7.1547455E-3,-4.9450663E-1,2.1788864E-1,-5.293881E-1,-1.0512674E-1,-3.2372203E-1,3.2385117E-1,-2.0622179E-2,-5.623849E-2,3.612944E-2,-5.5342246E-2,1.9767035E-2,-3.9776713E-2,-4.0582113E-2,3.9904606E-2],"categories":[],"categories_nodes":[],"categories_segments":[],"categories_sizes":[],"default_left":[0,0,0,0,0,0,0,0,0,0,0,0,0,0,0],"id":37,"left_children":[1,3,5,7,9,11,13,-1,-1,-1,-1,-1,-1,-1,-1],"loss_changes":[1.200912E2,4.642311E0,4.3095707E1,3.2665482E0,6.40715E0,4.8301115E0,3.456505E1,0E0,0E0,0E0,0E0,0E0,0E0,0E0,0E0],"parents":[2147483647,0,0,1,1,2,2,3,3,4,4,5,5,6,6],"right_children":[2,4,6,8,10,12,14,-1,-1,-1,-1,-1,-1,-1,-1],"split_conditions":[2E0,1.43E2,4.5522094E0,3E0,2E0,5.39E2,4.3E1,-2.0622179E-2,-5.623849E-2,3.612944E-2,-5.5342246E-2,1.9767035E-2,-3.9776713E-2,-4.0582113E-2,3.9904606E-2],"split_indices":[12,9,13,0,2,1,10,0,0,0,0,0,0,0,0],"split_type":[0,0,0,0,0,0,0,0,0,0,0,0,0,0,0],"sum_hessian":[1.0929877E3,3.4489304E2,7.480946E2,3.1620697E2,2.8686089E1,1.22074585E2,6.2602E2,2.9966692E1,2.8624026E2,1.4153945E1,1.4532144E1,1.4972854E1,1.0710173E2,5.807528E1,5.679447E2],"tree_param":{"num_deleted":"0","num_feature":"24","num_nodes":"15","size_leaf_vector":"1"}},{"base_weights":[-6.27229E-3,6.439871E-1,-1.9755062E-1,6.631595E-1,-5.2714806E-2,-3.1019628E-1,5.82948E-1,-8.169442E-4,6.708335E-2,-3.8710594E-2,3.6909156E-2,6.332695E-2,-1.5561931E-3],"categories":[],"categories_nodes":[],"categories_segments":[],"categories_sizes":[],"default_left":[0,0,0,0,0,0,0,0,0,0,0,0,0],"id":38,"left_children":[1,3,5,7,-1,9,11,-1,-1,-1,-1,-1,-1],"loss_changes":[1.2847478E2,5.621208E0,7.035083E1,1.1978226E0,0E0,3.66146E1,3.0519867E0,0E0,0E0,0E0,0E0,0E0,0E0],"parents":[2147483647,0,0,1,1,2,2,3,3,5,5,6,6],"right_children":[2,4,6,8,-1,10,12,-1,-1,-1,-1,-1,-1],"split_conditions":[1.09E2,2.28E2,6.5E1,1.41E2,-5.2714806E-2,1E0,5.89E2,-8.169442E-4,6.708335E-2,-3.8710594E-2,3.6909156E-2,6.332695E-2,-1.5561931E-3],"split_indices":[20,16,12,16,0,7,0,0,0,0,0,0,0],"split_type":[0,0,0,0,0,0,0,0,0,0,0,0,0],"sum_hessian":[1.0308943E3,2.3378041E2,7.971139E2,2.3044165E2,3.3387594E0,6.971064E2,1.00007484E2,2.6037025E0,2.2783795E2,6.26593E2,7.051336E1,9.2197624E1,7.809857E0],"tree_param":{"num_deleted":"0","num_feature":"24","num_nodes":"13","size_leaf_vector":"1"}},{"base_weights":[-2.2860335E-3,-1.9820414E-1,5.561018E-1,8.155369E-2,-4.0575403E-1,6.258508E-1,-5.7588782E-2,2.548862E-2,-4.215535E-2,-5.403012E-2,-1.5942017E-2,6.642031E-2,1.5402979E-2],"categories":[],"categories_nodes":[],"categories_segments":[],"categories_sizes":[],"default_left":[0,0,0,0,0,0,0,0,0,0,0,0,0],"id":39,"left_children":[1,3,5,7,9,11,-1,-1,-1,-1,-1,-1,-1],"loss_changes":[1.1083219E2,4.3578625E1,2.1136543E1,2.8034771E1,1.4189156E1,4.3916016E0,0E0,0E0,0E0,0E0,0E0,0E0,0E0],"parents":[2147483647,0,0,1,1,2,2,3,3,4,4,5,5],"right_children":[2,4,6,8,10,12,-1,-1,-1,-1,-1,-1,-1],"split_conditions":[2E0,6E1,2E0,3.9E1,1.219E3,1E0,-5.7588782E-2,2.548862E-2,-4.215535E-2,-5.403012E-2,-1.5942017E-2,6.642031E-2,1.5402979E-2],"split_indices":[2,10,7,22,1,7,0,0,0,0,0,0,0],"split_type":[0,0,0,0,0,0,0,0,0,0,0,0,0],"sum_hessian":[1.0110997E3,7.4896124E2,2.621384E2,3.1924966E2,4.297116E2,2.4734503E2,1.4793356E1,2.3781133E2,8.143835E1,2.7714313E2,1.5256848E2,2.2837376E2,1.8971264E1],"tree_param":{"num_deleted":"0","num_feature":"24","num_nodes":"13","size_leaf_vector":"1"}},{"base_weights":[-1.1031652E-2,-4.2738065E-1,2.4120782E-1,-8.748414E-2,-5.070595E-1,3.3976611E-1,-4.110316E-1,-4.065129E-2,1.795481E-2,-5.3186107E-2,1.0731628E-2,4.0104907E-2,-5.9644874E-2,-4.902027E-2,7.733096E-2],"categories":[],"categories_nodes":[],"categories_segments":[],"categories_sizes":[],"default_left":[0,0,0,0,0,0,0,0,0,0,0,0,0,0,0],"id":40,"left_children":[1,3,5,7,9,11,13,-1,-1,-1,-1,-1,-1,-1,-1],"loss_changes":[1.0979769E2,1.0637726E1,4.1993954E1,6.557005E0,4.9226303E0,3.272245E1,8.435594E0,0E0,0E0,0E0,0E0,0E0,0E0,0E0,0E0],"parents":[2147483647,0,0,1,1,2,2,3,3,4,4,5,5,6,6],"right_children":[2,4,6,8,10,12,14,-1,-1,-1,-1,-1,-1,-1,-1],"split_conditions":[7E0,2.6E1,7.7E1,1.32E2,1.35E2,6.9E1,1.52E2,-4.065129E-2,1.795481E-2,-5.3186107E-2,1.0731628E-2,4.0104907E-2,-5.9644874E-2,-4.902027E-2,7.733096E-2],"split_indices":[12,0,10,9,15,12,19,0,0,0,0,0,0,0,0],"split_type":[0,0,0,0,0,0,0,0,0,0,0,0,0,0,0],"sum_hessian":[1.0435149E3,3.9342664E2,6.5008826E2,7.511155E1,3.183151E2,5.6516644E2,8.492182E1,3.3985752E1,4.1125793E1,3.0609283E2,1.2222252E1,5.30981E2,3.418545E1,8.0150024E1,4.771791E0],"tree_param":{"num_deleted":"0","num_feature":"24","num_nodes":"15","size_leaf_vector":"1"}},{"base_weights":[-7.3802965E-3,6.146725E-1,-1.9470061E-1,-6.1470162E-2,6.2942994E-1,-3.7983534E-1,3.659698E-1,6.416594E-2,-2.708866E-2,-4.56829E-2,3.0769676E-2,4.4242505E-2,-7.216585E-2],"categories":[],"categories_nodes":[],"categories_segments":[],"categories_sizes":[],"default_left":[0,0,0,0,0,0,0,0,0,0,0,0,0],"id":41,"left_children":[1,3,5,-1,7,9,11,-1,-1,-1,-1,-1,-1],"loss_changes":[1.153879E2,4.544937E0,7.913501E1,0E0,2.67276E0,3.04524E1,1.607104E1,0E0,0E0,0E0,0E0,0E0,0E0],"parents":[2147483647,0,0,1,1,2,2,4,4,5,5,6,6],"right_children":[2,4,6,-1,8,10,12,-1,-1,-1,-1,-1,-1],"split_conditions":[1.1E2,2.5E1,7.3E1,-6.1470162E-2,1.76E2,1E0,4E0,6.416594E-2,-2.708866E-2,-4.56829E-2,3.0769676E-2,4.4242505E-2,-7.216585E-2],"split_indices":[20,10,10,0,14,7,4,0,0,0,0,0,0],"split_type":[0,0,0,0,0,0,0,0,0,0,0,0,0],"sum_hessian":[9.882306E2,2.2818687E2,7.600437E2,2.224459E0,2.259624E2,5.7161694E2,1.8842676E2,2.2321762E2,2.7447875E0,5.143525E2,5.7264492E1,1.7660542E2,1.1821323E1],"tree_param":{"num_deleted":"0","num_feature":"24","num_nodes":"13","size_leaf_vector":"1"}},{"base_weights":[6.13696E-3,-2.400116E-1,4.3342817E-1,-2.4954572E-2,-3.8043928E-1,-5.530285E-1,5.270424E-1,-5.5780094E-2,3.1151706E-2,9.233878E-2,-3.9956875E-2,-5.8210403E-2,-1.8148838E-2,5.4855682E-2,-6.356897E-2],"categories":[],"categories_nodes":[],"categories_segments":[],"categories_sizes":[],"default_left":[0,0,0,0,0,0,0,0,0,0,0,0,0,0,0],"id":42,"left_children":[1,3,5,7,9,11,13,-1,-1,-1,-1,-1,-1,-1,-1],"loss_changes":[1.0532724E2,1.9179935E1,3.4092644E1,4.5368267E1,9.954819E0,2.42342E-1,8.724213E0,0E0,0E0,0E0,0E0,0E0,0E0,0E0,0E0],"parents":[2147483647,0,0,1,1,2,2,3,3,4,4,5,5,6,6],"right_children":[2,4,6,8,10,12,14,-1,-1,-1,-1,-1,-1,-1,-1],"split_conditions":[1E0,8E0,1.07E2,1.09E2,0E0,1.61E2,2E0,-5.5780094E-2,3.1151706E-2,9.233878E-2,-3.9956875E-2,-5.8210403E-2,-1.8148838E-2,5.4855682E-2,-6.356897E-2],"split_indices":[2,12,19,20,23,14,7,0,0,0,0,0,0,0,0],"split_type":[0,0,0,0,0,0,0,0,0,0,0,0,0,0,0],"sum_hessian":[9.994383E2,6.344123E2,3.6502597E2,2.5107811E2,3.8333417E2,3.1212967E1,3.3381302E2,9.692579E1,1.5415233E2,4.8593516E0,3.7847482E2,2.8422022E1,2.7909455E0,3.282672E2,5.545805E0],"tree_param":{"num_deleted":"0","num_feature":"24","num_nodes":"15","size_leaf_vector":"1"}},{"base_weights":[-9.558335E-4,-4.7384286E-1,2.0415694E-1,-4.949299E-1,5.17753E-1,-1.3312393E-1,3.5385165E-1,-5.183437E-2,-1.7746411E-2,9.071943E-2,-3.8432594E-2,-9.6136436E-4,-5.8069833E-2,4.0613163E-2,-5.8429938E-2],"categories":[],"categories_nodes":[],"categories_segments":[],"categories_sizes":[],"default_left":[0,0,0,0,0,0,0,0,0,0,0,0,0,0,0],"id":43,"left_children":[1,3,5,7,9,11,13,-1,-1,-1,-1,-1,-1,-1,-1],"loss_changes":[9.938575E1,6.737915E0,3.613005E1,2.1679459E0,2.7879467E0,1.2178858E1,2.4527798E1,0E0,0E0,0E0,0E0,0E0,0E0,0E0,0E0],"parents":[2147483647,0,0,1,1,2,2,3,3,4,4,5,5,6,6],"right_children":[2,4,6,8,10,12,14,-1,-1,-1,-1,-1,-1,-1,-1],"split_conditions":[2E0,3.25E2,1.4E2,1.24E2,2.6E1,7.5E1,7.9E1,-5.183437E-2,-1.7746411E-2,9.071943E-2,-3.8432594E-2,-9.6136436E-4,-5.8069833E-2,4.0613163E-2,-5.8429938E-2],"split_indices":[12,3,21,15,10,10,10,0,0,0,0,0,0,0,0],"split_type":[0,0,0,0,0,0,0,0,0,0,0,0,0,0,0],"sum_hessian":[1.02264905E3,3.0898187E2,7.136672E2,3.0303842E2,5.9434714E0,2.19413E2,4.9425418E2,2.8163452E2,2.1403896E1,4.1473336E0,1.796138E0,1.7276042E2,4.665258E1,4.687021E2,2.5552094E1],"tree_param":{"num_deleted":"0","num_feature":"24","num_nodes":"15","size_leaf_vector":"1"}},{"base_weights":[-1.1307432E-2,4.5707998E-1,-2.3610243E-1,1.5680745E-1,6.052213E-1,-4.968681E-1,2.7168497E-1,5.6831498E-2,-1.549346E-2,6.1923232E-2,-2.7862802E-2,-5.2690107E-2,5.5698585E-2,9.598768E-3,7.0385605E-2],"categories":[],"categories_nodes":[],"categories_segments":[],"categories_sizes":[],"default_left":[0,0,0,0,0,0,0,0,0,0,0,0,0,0,0],"id":44,"left_children":[1,3,5,7,9,11,13,-1,-1,-1,-1,-1,-1,-1,-1],"loss_changes":[9.810378E1,1.3346249E1,8.349562E1,1.3067244E1,2.673912E0,1.3469498E1,1.6200602E1,0E0,0E0,0E0,0E0,0E0,0E0,0E0,0E0],"parents":[2147483647,0,0,1,1,2,2,3,3,4,4,5,5,6,6],"right_children":[2,4,6,8,10,12,14,-1,-1,-1,-1,-1,-1,-1,-1],"split_conditions":[1.21E2,1E0,7E1,6.2E1,1.29E2,6.9E1,7.9E1,5.6831498E-2,-1.549346E-2,6.1923232E-2,-2.7862802E-2,-5.2690107E-2,5.5698585E-2,9.598768E-3,7.0385605E-2],"split_indices":[20,7,10,15,21,12,10,0,0,0,0,0,0,0,0],"split_type":[0,0,0,0,0,0,0,0,0,0,0,0,0,0,0],"sum_hessian":[9.2971313E2,3.0116544E2,6.285477E2,1.00175285E2,2.0099016E2,4.152993E2,2.1324844E2,4.2823772E1,5.7351513E1,1.9814844E2,2.8417125E0,4.042781E2,1.1021183E1,1.5248032E2,6.0768112E1],"tree_param":{"num_deleted":"0","num_feature":"24","num_nodes":"15","size_leaf_vector":"1"}},{"base_weights":[5.170717E-4,2.7327776E-1,-3.1895542E-1,3.5799652E-1,-3.8966992E-1,-5.0161517E-1,-5.2424602E-2,5.604809E-2,1.6575739E-2,-5.399219E-2,8.518661E-3,-5.2508708E-2,3.125993E-2,-5.0888803E-2,3.1432904E-2],"categories":[],"categories_nodes":[],"categories_segments":[],"categories_sizes":[],"default_left":[0,0,0,0,0,0,0,0,0,0,0,0,0,0,0],"id":45,"left_children":[1,3,5,7,9,11,13,-1,-1,-1,-1,-1,-1,-1,-1],"loss_changes":[8.40619E1,2.9366383E1,2.1604069E1,1.7888302E1,4.2872095E0,5.2001495E0,3.0592793E1,0E0,0E0,0E0,0E0,0E0,0E0,0E0,0E0],"parents":[2147483647,0,0,1,1,2,2,3,3,4,4,5,5,6,6],"right_children":[2,4,6,8,10,12,14,-1,-1,-1,-1,-1,-1,-1,-1],"split_conditions":[6E1,1E0,3E0,4.3E1,1.33E2,5E0,1.09E2,5.604809E-2,1.6575739E-2,-5.399219E-2,8.518661E-3,-5.2508708E-2,3.125993E-2,-5.0888803E-2,3.1432904E-2],"split_indices":[10,7,4,10,19,5,20,0,0,0,0,0,0,0,0],"split_type":[0,0,0,0,0,0,0,0,0,0,0,0,0,0,0],"sum_hessian":[9.626812E2,5.1938385E2,4.4329736E2,4.609399E2,5.8443974E1,2.625107E2,1.8078665E2,2.2355505E2,2.3738484E2,4.4292213E1,1.4151761E1,2.5550032E2,7.0103817E0,8.037009E1,1.00416565E2],"tree_param":{"num_deleted":"0","num_feature":"24","num_nodes":"15","size_leaf_vector":"1"}},{"base_weights":[-5.2454453E-3,2.5850514E-1,-2.9969916E-1,-1.8291497E-1,3.5362828E-1,-4.2164353E-1,1.3638978E-1,-4.3566655E-2,1.583289E-2,4.0958315E-2,1.0321655E-3,-5.817397E-3,-5.03801E-2,4.729263E-2,-4.302858E-2],"categories":[],"categories_nodes":[],"categories_segments":[],"categories_sizes":[],"default_left":[0,0,0,0,0,0,0,0,0,0,0,0,0,0,0],"id":46,"left_children":[1,3,5,7,9,11,13,-1,-1,-1,-1,-1,-1,-1,-1],"loss_changes":[7.771663E1,2.2230026E1,2.5201427E1,8.197735E0,8.344959E0,1.1011826E1,2.005205E1,0E0,0E0,0E0,0E0,0E0,0E0,0E0,0E0],"parents":[2147483647,0,0,1,1,2,2,3,3,4,4,5,5,6,6],"right_children":[2,4,6,8,10,12,14,-1,-1,-1,-1,-1,-1,-1,-1],"split_conditions":[7E-1,1.44E2,1.49E2,5.5104456E0,1.48E2,2.2E1,2E0,-4.3566655E-2,1.583289E-2,4.0958315E-2,1.0321655E-3,-5.817397E-3,-5.03801E-2,4.729263E-2,-4.302858E-2],"split_indices":[11,16,19,13,9,0,2,0,0,0,0,0,0,0,0],"split_type":[0,0,0,0,0,0,0,0,0,0,0,0,0,0,0],"sum_hessian":[9.987015E2,5.268811E2,4.7182037E2,9.324652E1,4.3363458E2,3.6874158E2,1.0307878E2,5.3410145E1,3.983638E1,3.7269647E2,6.093813E1,6.829751E1,3.0044406E2,6.477546E1,3.8303326E1],"tree_param":{"num_deleted":"0","num_feature":"24","num_nodes":"15","size_leaf_vector":"1"}},{"base_weights":[-2.166668E-3,4.3500248E-1,-2.4052958E-1,-2.3002863E-1,5.189025E-1,-4.641928E-1,1.9504584E-1,-6.0943987E-2,2.335027E-2,1.9204848E-2,6.06516E-2,-4.9804814E-2,6.8340294E-2,2.7065968E-2,-7.302327E-2],"categories":[],"categories_nodes":[],"categories_segments":[],"categories_sizes":[],"default_left":[0,0,0,0,0,0,0,0,0,0,0,0,0,0,0],"id":47,"left_children":[1,3,5,7,9,11,13,-1,-1,-1,-1,-1,-1,-1,-1],"loss_changes":[9.576767E1,1.8213165E1,5.80318E1,6.653192E0,8.138458E0,1.5619316E1,1.4364346E1,0E0,0E0,0E0,0E0,0E0,0E0,0E0,0E0],"parents":[2147483647,0,0,1,1,2,2,3,3,4,4,5,5,6,6],"right_children":[2,4,6,8,10,12,14,-1,-1,-1,-1,-1,-1,-1,-1],"split_conditions":[1.26E2,2.9E1,7E1,9.9E1,1.4836891E0,6.9E1,4E0,-6.0943987E-2,2.335027E-2,1.9204848E-2,6.06516E-2,-4.9804814E-2,6.8340294E-2,2.7065968E-2,-7.302327E-2],"split_indices":[21,10,10,14,11,12,4,0,0,0,0,0,0,0,0],"split_type":[0,0,0,0,0,0,0,0,0,0,0,0,0,0,0],"sum_hessian":[9.1702814E2,3.2328424E2,5.9374396E2,3.602123E1,2.87263E2,3.9225803E2,2.0148593E2,1.9634861E1,1.6386368E1,6.1398746E1,2.2586426E2,3.8156738E2,1.0690641E1,1.8691841E2,1.4567511E1],"tree_param":{"num_deleted":"0","num_feature":"24","num_nodes":"15","size_leaf_vector":"1"}},{"base_weights":[8.451407E-3,-1.6091536E-1,5.3003305E-1,1.2895703E-1,-3.3724722E-1,-2.9852495E-1,6.082156E-1,4.4602633E-2,-1.6348002E-2,-4.8854273E-2,-1.6100155E-3,-5.0967526E-2,7.706755E-2,6.269389E-2,-2.2631614E-2],"categories":[],"categories_nodes":[],"categories_segments":[],"categories_sizes":[],"default_left":[0,0,0,0,0,0,0,0,0,0,0,0,0,0,0],"id":48,"left_children":[1,3,5,7,9,11,13,-1,-1,-1,-1,-1,-1,-1,-1],"loss_changes":[8.358344E1,3.655312E1,1.5205292E1,2.5190172E1,2.1584522E1,5.058868E0,3.4584198E0,0E0,0E0,0E0,0E0,0E0,0E0,0E0,0E0],"parents":[2147483647,0,0,1,1,2,2,3,3,4,4,5,5,6,6],"right_children":[2,4,6,8,10,12,14,-1,-1,-1,-1,-1,-1,-1,-1],"split_conditions":[2E0,5.7E1,1.13E2,1.62E2,4E0,2.49E3,3.25E2,4.4602633E-2,-1.6348002E-2,-4.8854273E-2,-1.6100155E-3,-5.0967526E-2,7.706755E-2,6.269389E-2,-2.2631614E-2],"split_indices":[2,10,21,16,4,1,3,0,0,0,0,0,0,0,0],"split_type":[0,0,0,0,0,0,0,0,0,0,0,0,0,0,0],"sum_hessian":[9.442058E2,7.1328204E2,2.3092378E2,2.698854E2,4.433966E2,1.9668104E1,2.1125569E2,1.2923723E2,1.406482E2,3.0104852E2,1.423481E2,1.6861526E1,2.8065763E0,2.0686333E2,4.39236E0],"tree_param":{"num_deleted":"0","num_feature":"24","num_nodes":"15","size_leaf_vector":"1"}},{"base_weights":[-9.533885E-4,2.5308365E-1,-2.9199675E-1,3.3911088E-1,-5.772318E-1,-4.6034586E-1,1.7177943E-2,-3.1532224E-2,4.066021E-2,-6.1519343E-2,3.680184E-2,-4.8094627E-2,3.0543203E-2,-3.165306E-2,3.0224487E-2],"categories":[],"categories_nodes":[],"categories_segments":[],"categories_sizes":[],"default_left":[0,0,0,0,0,0,0,0,0,0,0,0,0,0,0],"id":49,"left_children":[1,3,5,7,9,11,13,-1,-1,-1,-1,-1,-1,-1,-1],"loss_changes":[7.1831566E1,3.725003E1,2.3575237E1,2.091745E1,1.9872265E0,4.7721596E0,1.5372753E1,0E0,0E0,0E0,0E0,0E0,0E0,0E0,0E0],"parents":[2147483647,0,0,1,1,2,2,3,3,4,4,5,5,6,6],"right_children":[2,4,6,8,10,12,14,-1,-1,-1,-1,-1,-1,-1,-1],"split_conditions":[7E-1,7.9E1,1.43E2,4.2E0,4E0,4E0,4.7E1,-3.1532224E-2,4.066021E-2,-6.1519343E-2,3.680184E-2,-4.8094627E-2,3.0543203E-2,-3.165306E-2,3.0224487E-2],"split_indices":[11,10,19,13,4,11,10,0,0,0,0,0,0,0,0],"split_type":[0,0,0,0,0,0,0,0,0,0,0,0,0,0,0],"sum_hessian":[9.695403E2,5.177515E2,4.5178873E2,4.6968054E2,4.807101E1,2.9219583E2,1.5959288E2,4.356616E1,4.2611438E2,4.6550694E1,1.5203186E0,2.849035E2,7.292319E0,7.347283E1,8.612005E1],"tree_param":{"num_deleted":"0","num_feature":"24","num_nodes":"15","size_leaf_vector":"1"}},{"base_weights":[-1.0554039E-2,4.352917E-1,-2.1902904E-1,-3.9589474E-1,4.892578E-1,-4.7821274E-1,2.4467881E-1,-6.469565E-2,5.58607E-2,-9.30321E-3,5.498705E-2,-5.2562304E-2,4.0047985E-2,6.5657176E-2,5.2317637E-3],"categories":[],"categories_nodes":[],"categories_segments":[],"categories_sizes":[],"default_left":[0,0,0,0,0,0,0,0,0,0,0,0,0,0,0],"id":50,"left_children":[1,3,5,7,9,11,13,-1,-1,-1,-1,-1,-1,-1,-1],"loss_changes":[8.112538E1,1.2667912E1,7.158963E1,4.556918E0,9.283676E0,1.6116226E1,1.6911728E1,0E0,0E0,0E0,0E0,0E0,0E0,0E0,0E0],"parents":[2147483647,0,0,1,1,2,2,3,3,4,4,5,5,6,6],"right_children":[2,4,6,8,10,12,14,-1,-1,-1,-1,-1,-1,-1,-1],"split_conditions":[1.21E2,9E0,7E1,6.6E1,2.9E1,6.3E1,1.44E2,-6.469565E-2,5.58607E-2,-9.30321E-3,5.498705E-2,-5.2562304E-2,4.0047985E-2,6.5657176E-2,5.2317637E-3],"split_indices":[20,22,10,10,10,12,16,0,0,0,0,0,0,0,0],"split_type":[0,0,0,0,0,0,0,0,0,0,0,0,0,0,0],"sum_hessian":[8.707812E2,2.7709543E2,5.936857E2,1.6507698E1,2.6058774E2,3.808071E2,2.1287866E2,1.3325032E1,3.1826658E0,2.4517725E1,2.3607E2,3.6169354E2,1.9113535E1,6.700058E1,1.4587807E2],"tree_param":{"num_deleted":"0","num_feature":"24","num_nodes":"15","size_leaf_vector":"1"}},{"base_weights":[9.94984E-3,-1.5938465E-1,5.1783776E-1,1.0774628E-1,-3.2745934E-1,-4.261012E-1,5.849355E-1,3.7367754E-2,-1.8071074E-2,-4.840493E-2,-6.209183E-4,5.2270215E-2,-5.3700294E-2,6.2337734E-2,1.4237064E-2],"categories":[],"categories_nodes":[],"categories_segments":[],"categories_sizes":[],"default_left":[0,0,0,0,0,0,0,0,0,0,0,0,0,0,0],"id":51,"left_children":[1,3,5,7,9,11,13,-1,-1,-1,-1,-1,-1,-1,-1],"loss_changes":[7.780783E1,3.0500328E1,1.4576626E1,2.0226982E1,2.0960796E1,1.9212551E0,3.511551E0,0E0,0E0,0E0,0E0,0E0,0E0,0E0,0E0],"parents":[2147483647,0,0,1,1,2,2,3,3,4,4,5,5,6,6],"right_children":[2,4,6,8,10,12,14,-1,-1,-1,-1,-1,-1,-1,-1],"split_conditions":[2E0,5.7E1,1.06E2,1.64E2,4E0,1E0,1E1,3.7367754E-2,-1.8071074E-2,-4.840493E-2,-6.209183E-4,5.2270215E-2,-5.3700294E-2,6.2337734E-2,1.4237064E-2],"split_indices":[2,10,19,16,4,7,17,0,0,0,0,0,0,0,0],"split_type":[0,0,0,0,0,0,0,0,0,0,0,0,0,0,0],"sum_hessian":[9.027515E2,6.7753973E2,2.2521178E2,2.618018E2,4.1573795E2,1.4591155E1,2.1062062E2,1.360659E2,1.2573587E2,2.7915842E2,1.3657953E2,1.1384147E0,1.3452741E1,1.9341202E2,1.72086E1],"tree_param":{"num_deleted":"0","num_feature":"24","num_nodes":"15","size_leaf_vector":"1"}},{"base_weights":[1.3266146E-2,-2.7364862E-1,2.46751E-1,-1.1177725E-1,-4.9226013E-1,3.6085665E-1,-5.106473E-1,-1.5739283E-3,-5.526377E-2,-5.4315455E-2,-1.3675879E-2,4.1111324E-2,-5.143748E-2,-5.916043E-2,1.558056E-2],"categories":[],"categories_nodes":[],"categories_segments":[],"categories_sizes":[],"default_left":[0,0,0,0,0,0,0,0,0,0,0,0,0,0,0],"id":52,"left_children":[1,3,5,7,9,11,13,-1,-1,-1,-1,-1,-1,-1,-1],"loss_changes":[6.3038517E1,1.4886049E1,4.501924E1,1.0317268E1,3.1704178E0,2.006876E1,3.7792873E0,0E0,0E0,0E0,0E0,0E0,0E0,0E0,0E0],"parents":[2147483647,0,0,1,1,2,2,3,3,4,4,5,5,6,6],"right_children":[2,4,6,8,10,12,14,-1,-1,-1,-1,-1,-1,-1,-1],"split_conditions":[1.39E2,1.207E3,2E0,7.6E1,9E0,7.9E1,1.8E1,-1.5739283E-3,-5.526377E-2,-5.4315455E-2,-1.3675879E-2,4.1111324E-2,-5.143748E-2,-5.916043E-2,1.558056E-2],"split_indices":[20,1,2,10,4,10,3,0,0,0,0,0,0,0,0],"split_type":[0,0,0,0,0,0,0,0,0,0,0,0,0,0,0],"sum_hessian":[9.3900244E2,4.212199E2,5.1778253E2,2.4288586E2,1.7833405E2,4.5044446E2,6.733805E1,2.0028998E2,4.259589E1,1.5553888E2,2.279517E1,4.2648557E2,2.3958902E1,6.0144356E1,7.1936913E0],"tree_param":{"num_deleted":"0","num_feature":"24","num_nodes":"15","size_leaf_vector":"1"}},{"base_weights":[-7.419443E-3,5.5701506E-1,-1.5886173E-1,5.839002E-1,-5.7317823E-2,-3.5804388E-1,2.6298094E-1,-3.3143897E-2,5.9470374E-2,-4.5585953E-2,3.1188136E-2,3.356693E-2,-7.07027E-2],"categories":[],"categories_nodes":[],"categories_segments":[],"categories_sizes":[],"default_left":[0,0,0,0,0,0,0,0,0,0,0,0,0],"id":53,"left_children":[1,3,5,7,-1,9,11,-1,-1,-1,-1,-1,-1],"loss_changes":[7.286258E1,5.81398E0,5.656125E1,1.9437943E0,0E0,3.0083656E1,1.5475609E1,0E0,0E0,0E0,0E0,0E0,0E0],"parents":[2147483647,0,0,1,1,2,2,3,3,5,5,6,6],"right_children":[2,4,6,8,-1,10,12,-1,-1,-1,-1,-1,-1],"split_conditions":[1.09E2,2.28E2,7E1,2.5E1,-5.7317823E-2,1E0,4E0,-3.3143897E-2,5.9470374E-2,-4.5585953E-2,3.1188136E-2,3.356693E-2,-7.07027E-2],"split_indices":[20,16,10,10,0,7,4,0,0,0,0,0,0],"split_type":[0,0,0,0,0,0,0,0,0,0,0,0,0],"sum_hessian":[8.503656E2,1.7932658E2,6.71039E2,1.7563199E2,3.6945896E0,4.5591846E2,2.1512053E2,1.7025537E0,1.7392944E2,3.9811005E2,5.780843E1,2.0073244E2,1.4388095E1],"tree_param":{"num_deleted":"0","num_feature":"24","num_nodes":"13","size_leaf_vector":"1"}},{"base_weights":[1.2378459E-3,-2.0753862E-1,3.8922837E-1,-4.6659058E-1,-7.503708E-2,4.9537146E-1,-2.7165577E-1,-5.4200616E-2,3.229935E-2,4.5586694E-2,-2.0174302E-2,2.6072849E-2,5.8788013E-2,2.4052603E-2,-4.9078338E-2],"categories":[],"categories_nodes":[],"categories_segments":[],"categories_sizes":[],"default_left":[0,0,0,0,0,0,0,0,0,0,0,0,0,0,0],"id":54,"left_children":[1,3,5,7,9,11,13,-1,-1,-1,-1,-1,-1,-1,-1],"loss_changes":[7.127061E1,1.9600168E1,2.1726925E1,1.1690647E1,2.5630804E1,5.6112976E0,4.97116E0,0E0,0E0,0E0,0E0,0E0,0E0,0E0,0E0],"parents":[2147483647,0,0,1,1,2,2,3,3,4,4,5,5,6,6],"right_children":[2,4,6,8,10,12,14,-1,-1,-1,-1,-1,-1,-1,-1],"split_conditions":[1E0,5E-1,1E0,1.453E3,1.49E2,2E0,3E1,-5.4200616E-2,3.229935E-2,4.5586694E-2,-2.0174302E-2,2.6072849E-2,5.8788013E-2,2.4052603E-2,-4.9078338E-2],"split_indices":[2,11,7,0,16,2,10,0,0,0,0,0,0,0,0],"split_type":[0,0,0,0,0,0,0,0,0,0,0,0,0,0,0],"sum_hessian":[8.778511E2,5.710409E2,3.0681018E2,1.9238675E2,3.7865414E2,2.6456885E2,4.2241356E1,1.7589961E2,1.6487148E1,7.245719E1,3.0619696E2,7.589187E1,1.8867697E2,1.2627828E1,2.961353E1],"tree_param":{"num_deleted":"0","num_feature":"24","num_nodes":"15","size_leaf_vector":"1"}},{"base_weights":[2.5612551E-3,-4.195082E-1,1.5915672E-1,-1.3153508E-1,-4.7344017E-1,-3.880863E-1,2.363573E-1,-3.6695745E-2,6.6391565E-2,-4.9978558E-2,1.9747222E-2,-4.622097E-2,3.964921E-2,2.8083384E-2,-6.387852E-2],"categories":[],"categories_nodes":[],"categories_segments":[],"categories_sizes":[],"default_left":[0,0,0,0,0,0,0,0,0,0,0,0,0,0,0],"id":55,"left_children":[1,3,5,7,9,11,13,-1,-1,-1,-1,-1,-1,-1,-1],"loss_changes":[5.932098E1,3.7099571E0,2.774807E1,7.677611E0,3.707798E0,4.9119396E0,2.2533703E1,0E0,0E0,0E0,0E0,0E0,0E0,0E0,0E0],"parents":[2147483647,0,0,1,1,2,2,3,3,4,4,5,5,6,6],"right_children":[2,4,6,8,10,12,14,-1,-1,-1,-1,-1,-1,-1,-1],"split_conditions":[2E0,2.4E1,4.2E0,6.1E1,1.37E2,1.52E2,8E1,-3.6695745E-2,6.6391565E-2,-4.9978558E-2,1.9747222E-2,-4.622097E-2,3.964921E-2,2.8083384E-2,-6.387852E-2],"split_indices":[12,0,13,22,15,21,10,0,0,0,0,0,0,0,0],"split_type":[0,0,0,0,0,0,0,0,0,0,0,0,0,0,0],"sum_hessian":[8.9551196E2,2.4188472E2,6.536272E2,3.869726E1,2.0318747E2,8.0310715E1,5.733165E2,3.0275557E1,8.421702E0,1.957556E2,7.4318676E0,7.375368E1,6.557035E0,5.462348E2,2.7081682E1],"tree_param":{"num_deleted":"0","num_feature":"24","num_nodes":"15","size_leaf_vector":"1"}},{"base_weights":[-1.3599599E-2,-1.6591819E-1,4.878403E-1,-2.7503183E-1,5.1741594E-1,5.584295E-1,-3.5147193E-1,-3.167688E-2,3.7392873E-2,2.030849E-2,6.180008E-2,-6.5852217E-3,5.9016068E-2,9.0940766E-2,-5.337292E-2],"categories":[],"categories_nodes":[],"categories_segments":[],"categories_sizes":[],"default_left":[0,0,0,0,0,0,0,0,0,0,0,0,0,0,0],"id":56,"left_children":[1,3,5,7,9,11,13,-1,-1,-1,-1,-1,-1,-1,-1],"loss_changes":[6.1304306E1,4.6039482E1,1.1276089E1,1.45133705E1,2.5652657E0,3.463684E0,3.960472E0,0E0,0E0,0E0,0E0,0E0,0E0,0E0,0E0],"parents":[2147483647,0,0,1,1,2,2,3,3,4,4,5,5,6,6],"right_children":[2,4,6,8,10,12,14,-1,-1,-1,-1,-1,-1,-1,-1],"split_conditions":[1E0,6.5E1,1.3E2,7.8E1,6.9E1,1.2E1,1.5E1,-3.167688E-2,3.7392873E-2,2.030849E-2,6.180008E-2,-6.5852217E-3,5.9016068E-2,9.0940766E-2,-5.337292E-2],"split_indices":[7,12,21,22,12,22,22,0,0,0,0,0,0,0,0],"split_type":[0,0,0,0,0,0,0,0,0,0,0,0,0,0,0],"sum_hessian":[8.0057733E2,6.1456476E2,1.8601254E2,5.304594E2,8.410537E1,1.7189058E2,1.4121962E1,4.9888614E2,3.1573261E1,2.1120901E1,6.2984467E1,8.26229E0,1.636283E2,1.2796292E0,1.2842333E1],"tree_param":{"num_deleted":"0","num_feature":"24","num_nodes":"15","size_leaf_vector":"1"}},{"base_weights":[9.45384E-3,2.4227455E-1,-2.709488E-1,3.6680222E-1,-2.5575978E-1,-4.7829136E-1,1.0428444E-2,6.0178436E-2,1.5244553E-2,-3.750332E-2,3.4958553E-2,-5.01537E-2,4.0566746E-2,-4.7803998E-2,3.315849E-2],"categories":[],"categories_nodes":[],"categories_segments":[],"categories_sizes":[],"default_left":[0,0,0,0,0,0,0,0,0,0,0,0,0,0,0],"id":57,"left_children":[1,3,5,7,9,11,13,-1,-1,-1,-1,-1,-1,-1,-1],"loss_changes":[5.4860294E1,2.8566927E1,2.2246548E1,1.8428387E1,6.80405E0,4.7140274E0,2.5684895E1,0E0,0E0,0E0,0E0,0E0,0E0,0E0,0E0],"parents":[2147483647,0,0,1,1,2,2,3,3,4,4,5,5,6,6],"right_children":[2,4,6,8,10,12,14,-1,-1,-1,-1,-1,-1,-1,-1],"split_conditions":[6E1,4.4E1,3E0,1.4E2,1.36E2,5E0,1.08E2,6.0178436E-2,1.5244553E-2,-3.750332E-2,3.4958553E-2,-5.01537E-2,4.0566746E-2,-4.7803998E-2,3.315849E-2],"split_indices":[10,22,4,20,20,5,20,0,0,0,0,0,0,0,0],"split_type":[0,0,0,0,0,0,0,0,0,0,0,0,0,0,0],"sum_hessian":[8.383333E2,4.581027E2,3.8023062E2,3.6668173E2,9.142099E1,2.1851237E2,1.6171823E2,1.7406299E2,1.9261873E2,7.669078E1,1.4730204E1,2.1333492E2,5.177473E0,6.39555E1,9.7762726E1],"tree_param":{"num_deleted":"0","num_feature":"24","num_nodes":"15","size_leaf_vector":"1"}},{"base_weights":[5.1486115E-3,-2.6707596E-1,2.0902048E-1,-1.2632388E-1,-4.7270155E-1,3.049341E-1,-4.689272E-1,-3.5614127E-3,-5.6908496E-2,-2.8943086E-2,-5.7921927E-2,3.565723E-2,-5.105427E-2,-5.7180762E-2,3.732882E-2],"categories":[],"categories_nodes":[],"categories_segments":[],"categories_sizes":[],"default_left":[0,0,0,0,0,0,0,0,0,0,0,0,0,0,0],"id":58,"left_children":[1,3,5,7,9,11,13,-1,-1,-1,-1,-1,-1,-1,-1],"loss_changes":[4.8085976E1,1.0678644E1,3.235593E1,8.880737E0,2.7684822E0,1.848307E1,5.5677795E0,0E0,0E0,0E0,0E0,0E0,0E0,0E0,0E0],"parents":[2147483647,0,0,1,1,2,2,3,3,4,4,5,5,6,6],"right_children":[2,4,6,8,10,12,14,-1,-1,-1,-1,-1,-1,-1,-1],"split_conditions":[1.38E2,1.207E3,2E0,7.6E1,5.3E1,7.9E1,9E0,-3.5614127E-3,-5.6908496E-2,-2.8943086E-2,-5.7921927E-2,3.565723E-2,-5.105427E-2,-5.7180762E-2,3.732882E-2],"split_indices":[20,1,2,10,10,10,17,0,0,0,0,0,0,0,0],"split_type":[0,0,0,0,0,0,0,0,0,0,0,0,0,0,0],"sum_hessian":[8.644248E2,3.700273E2,4.9439746E2,2.2062343E2,1.4940388E2,4.3360306E2,6.0794422E1,1.8400601E2,3.6617413E1,5.6282833E1,9.312105E1,4.083105E2,2.5292574E1,5.446263E1,6.331789E0],"tree_param":{"num_deleted":"0","num_feature":"24","num_nodes":"15","size_leaf_vector":"1"}},{"base_weights":[-1.9217888E-2,5.388318E-1,-1.5646182E-1,-6.1052937E-2,5.557807E-1,-3.5714182E-1,2.4388541E-1,5.7569902E-2,-3.3694647E-2,-4.554295E-2,2.2296842E-2,3.0942157E-2,-7.030725E-2],"categories":[],"categories_nodes":[],"categories_segments":[],"categories_sizes":[],"default_left":[0,0,0,0,0,0,0,0,0,0,0,0,0],"id":59,"left_children":[1,3,5,-1,7,9,11,-1,-1,-1,-1,-1,-1],"loss_changes":[5.960981E1,3.3322601E0,5.0266087E1,0E0,2.8955193E0,2.38457E1,1.3196454E1,0E0,0E0,0E0,0E0,0E0,0E0],"parents":[2147483647,0,0,1,1,2,2,4,4,5,5,6,6],"right_children":[2,4,6,-1,8,10,12,-1,-1,-1,-1,-1,-1],"split_conditions":[1.09E2,2.5E1,7E1,-6.1052937E-2,1.63E2,1E0,4E0,5.7569902E-2,-3.3694647E-2,-4.554295E-2,2.2296842E-2,3.0942157E-2,-7.030725E-2],"split_indices":[20,10,10,0,14,7,4,0,0,0,0,0,0],"split_type":[0,0,0,0,0,0,0,0,0,0,0,0,0],"sum_hessian":[7.762077E2,1.5263799E2,6.2356976E2,1.7092106E0,1.5092877E2,4.1543478E2,2.0813495E2,1.4798215E2,2.946621E0,3.5542953E2,6.0005264E1,1.9529257E2,1.2842373E1],"tree_param":{"num_deleted":"0","num_feature":"24","num_nodes":"13","size_leaf_vector":"1"}},{"base_weights":[1.5505334E-2,2.546073E-1,-2.7622595E-1,3.5899773E-1,-1.7674352E-1,-4.9214876E-1,-3.109402E-2,5.572469E-2,1.1466662E-2,-4.359741E-2,2.535196E-2,-5.0665375E-2,1.1631971E-1,-5.0225474E-2,2.180989E-2],"categories":[],"categories_nodes":[],"categories_segments":[],"categories_sizes":[],"default_left":[0,0,0,0,0,0,0,0,0,0,0,0,0,0,0],"id":60,"left_children":[1,3,5,7,9,11,13,-1,-1,-1,-1,-1,-1,-1,-1],"loss_changes":[5.7527386E1,2.0471073E1,1.9648241E1,1.7627384E1,1.003506E1,5.330311E0,2.066232E1,0E0,0E0,0E0,0E0,0E0,0E0,0E0,0E0],"parents":[2147483647,0,0,1,1,2,2,3,3,4,4,5,5,6,6],"right_children":[2,4,6,8,10,12,14,-1,-1,-1,-1,-1,-1,-1,-1],"split_conditions":[6E1,4.6E1,2E0,1.45E2,1.33E2,2.944E3,1.08E2,5.572469E-2,1.1466662E-2,-4.359741E-2,2.535196E-2,-5.0665375E-2,1.1631971E-1,-5.0225474E-2,2.180989E-2],"split_indices":[10,22,4,19,19,1,20,0,0,0,0,0,0,0,0],"split_type":[0,0,0,0,0,0,0,0,0,0,0,0,0,0,0],"sum_hessian":[8.227156E2,4.522117E2,3.7050388E2,3.6423224E2,8.7979454E1,1.9645241E2,1.7405145E2,2.003712E2,1.6386102E2,5.489333E1,3.3086124E1,1.9543385E2,1.0185599E0,5.9858562E1,1.141929E2],"tree_param":{"num_deleted":"0","num_feature":"24","num_nodes":"15","size_leaf_vector":"1"}},{"base_weights":[-9.482969E-3,-3.7871507E-1,1.2725088E-1,-1.0506093E-1,-4.6970063E-1,2.5984877E-1,-4.692519E-2,-3.199796E-2,5.347475E-2,5.114611E-2,-4.894282E-2,-2.495735E-2,3.2088082E-2,-1.557547E-2,3.7377413E-2],"categories":[],"categories_nodes":[],"categories_segments":[],"categories_sizes":[],"default_left":[0,0,0,0,0,0,0,0,0,0,0,0,0,0,0],"id":61,"left_children":[1,3,5,7,9,11,13,-1,-1,-1,-1,-1,-1,-1,-1],"loss_changes":[4.327418E1,5.717926E0,1.4459692E1,8.2957E0,3.6094627E0,1.1127495E1,1.247653E1,0E0,0E0,0E0,0E0,0E0,0E0,0E0,0E0],"parents":[2147483647,0,0,1,1,2,2,3,3,4,4,5,5,6,6],"right_children":[2,4,6,8,10,12,14,-1,-1,-1,-1,-1,-1,-1,-1],"split_conditions":[1.3E2,6.810489E-1,6E-1,3E0,4.21E2,4.2E0,1.85E2,-3.199796E-2,5.347475E-2,5.114611E-2,-4.894282E-2,-2.495735E-2,3.2088082E-2,-1.557547E-2,3.7377413E-2],"split_indices":[20,11,11,17,1,13,16,0,0,0,0,0,0,0,0],"split_type":[0,0,0,0,0,0,0,0,0,0,0,0,0,0,0],"sum_hessian":[8.5518866E2,2.3063065E2,6.24558E2,5.8085033E1,1.7254562E2,3.5432404E2,2.7023398E2,4.3853905E1,1.4231126E1,2.9095829E0,1.6963603E2,3.7578087E1,3.1674594E2,2.1519545E2,5.5038525E1],"tree_param":{"num_deleted":"0","num_feature":"24","num_nodes":"15","size_leaf_vector":"1"}},{"base_weights":[-2.169385E-2,5.3747684E-1,-1.5924358E-1,5.588497E-1,-4.592023E-2,-3.2130024E-1,2.6477325E-1,5.6703687E-2,-2.6125614E-2,5.5493265E-3,-4.1054055E-2,3.82761E-2,-6.1104275E-2],"categories":[],"categories_nodes":[],"categories_segments":[],"categories_sizes":[],"default_left":[0,0,0,0,0,0,0,0,0,0,0,0,0],"id":62,"left_children":[1,3,5,7,-1,9,11,-1,-1,-1,-1,-1,-1],"loss_changes":[5.7227108E1,3.385891E0,4.1109726E1,1.1168098E0,0E0,1.4562122E1,1.7349768E1,0E0,0E0,0E0,0E0,0E0,0E0],"parents":[2147483647,0,0,1,1,2,2,3,3,5,5,6,6],"right_children":[2,4,6,8,-1,10,12,-1,-1,-1,-1,-1,-1],"split_conditions":[1.09E2,2.27E2,7.3E1,1.31E2,-4.592023E-2,1.21E2,5.52E2,5.6703687E-2,-2.6125614E-2,5.5493265E-3,-4.1054055E-2,3.82761E-2,-6.1104275E-2],"split_indices":[20,16,10,19,0,20,0,0,0,0,0,0,0],"split_type":[0,0,0,0,0,0,0,0,0,0,0,0,0],"sum_hessian":[7.419295E2,1.4590111E2,5.9602844E2,1.4326814E2,2.6329603E0,4.3139438E2,1.6463405E2,1.4215756E2,1.1105887E0,8.2679665E1,3.487147E2,1.4558427E2,1.9049782E1],"tree_param":{"num_deleted":"0","num_feature":"24","num_nodes":"13","size_leaf_vector":"1"}},{"base_weights":[5.6362995E-3,-1.8423006E-1,3.6427003E-1,-4.644947E-1,-5.3729553E-2,-4.6761018E-1,4.3107542E-1,-5.345128E-2,2.57246E-2,1.1729645E-2,-4.6695277E-2,-5.0422322E-2,-5.225409E-3,5.176794E-2,1.1107021E-2],"categories":[],"categories_nodes":[],"categories_segments":[],"categories_sizes":[],"default_left":[0,0,0,0,0,0,0,0,0,0,0,0,0,0,0],"id":63,"left_children":[1,3,5,7,9,11,13,-1,-1,-1,-1,-1,-1,-1,-1],"loss_changes":[5.4086273E1,1.897092E1,1.5481571E1,8.469418E0,2.5178497E1,2.9176903E-1,7.0103264E0,0E0,0E0,0E0,0E0,0E0,0E0,0E0,0E0],"parents":[2147483647,0,0,1,1,2,2,3,3,4,4,5,5,6,6],"right_children":[2,4,6,8,10,12,14,-1,-1,-1,-1,-1,-1,-1,-1],"split_conditions":[1E0,5E-1,1.07E2,1.453E3,3.3E1,1.61E2,6E0,-5.345128E-2,2.57246E-2,1.1729645E-2,-4.6695277E-2,-5.0422322E-2,-5.225409E-3,5.176794E-2,1.1107021E-2],"split_indices":[2,11,19,0,22,14,3,0,0,0,0,0,0,0,0],"split_type":[0,0,0,0,0,0,0,0,0,0,0,0,0,0,0],"sum_hessian":[7.9232056E2,5.183724E2,2.739482E2,1.6387433E2,3.5449805E2,1.991844E1,2.5402977E2,1.4961879E2,1.4255538E1,2.5123311E2,1.0326493E2,1.8108267E1,1.8101735E0,1.9943764E2,5.459213E1],"tree_param":{"num_deleted":"0","num_feature":"24","num_nodes":"15","size_leaf_vector":"1"}},{"base_weights":[-5.580565E-3,-4.1623467E-1,1.3663399E-1,-4.4165745E-1,4.1985554E-1,2.0943283E-1,-3.9255488E-1,-4.706444E-2,2.6896536E-2,-4.056541E-2,8.843785E-2,2.5068838E-2,-5.844417E-2,6.8181083E-3,-5.8309954E-2],"categories":[],"categories_nodes":[],"categories_segments":[],"categories_sizes":[],"default_left":[0,0,0,0,0,0,0,0,0,0,0,0,0,0,0],"id":64,"left_children":[1,3,5,7,9,11,13,-1,-1,-1,-1,-1,-1,-1,-1],"loss_changes":[4.7941063E1,4.6737022E0,2.357302E1,4.357815E0,2.9447622E0,1.7723639E1,6.5439405E0,0E0,0E0,0E0,0E0,0E0,0E0,0E0,0E0],"parents":[2147483647,0,0,1,1,2,2,3,3,4,4,5,5,6,6],"right_children":[2,4,6,8,10,12,14,-1,-1,-1,-1,-1,-1,-1,-1],"split_conditions":[2E0,3.25E2,7.7E1,4E0,8.264903E0,6.9E1,2.1058092E-1,-4.706444E-2,2.6896536E-2,-4.056541E-2,8.843785E-2,2.5068838E-2,-5.844417E-2,6.8181083E-3,-5.8309954E-2],"split_indices":[12,3,10,11,13,12,11,0,0,0,0,0,0,0,0],"split_type":[0,0,0,0,0,0,0,0,0,0,0,0,0,0,0],"sum_hessian":[8.189209E2,2.1015561E2,6.087653E2,2.0441187E2,5.7437425E0,5.35678E2,7.3087296E1,1.9672499E2,7.6868777E0,2.113876E0,3.6298664E0,5.0986584E2,2.5812147E1,2.1570978E1,5.151632E1],"tree_param":{"num_deleted":"0","num_feature":"24","num_nodes":"15","size_leaf_vector":"1"}},{"base_weights":[-1.3757651E-2,3.5183212E-1,-2.0851222E-1,1.4030854E-1,5.888565E-1,-3.68727E-1,3.2018864E-1,5.184562E-2,-7.3695383E-3,6.0767062E-2,1.0249353E-2,-4.4763606E-2,6.335809E-2,4.3460276E-2,-5.440676E-2],"categories":[],"categories_nodes":[],"categories_segments":[],"categories_sizes":[],"default_left":[0,0,0,0,0,0,0,0,0,0,0,0,0,0,0],"id":65,"left_children":[1,3,5,7,9,11,13,-1,-1,-1,-1,-1,-1,-1,-1],"loss_changes":[5.150706E1,1.2523855E1,4.009375E1,1.0896942E1,1.019867E0,2.8965805E1,1.114218E1,0E0,0E0,0E0,0E0,0E0,0E0,0E0,0E0],"parents":[2147483647,0,0,1,1,2,2,3,3,4,4,5,5,6,6],"right_children":[2,4,6,8,10,12,14,-1,-1,-1,-1,-1,-1,-1,-1],"split_conditions":[1.26E2,1.29E2,7.5E1,1.07E2,3.8E0,6.8E1,5.52E2,5.184562E-2,-7.3695383E-3,6.0767062E-2,1.0249353E-2,-4.4763606E-2,6.335809E-2,4.3460276E-2,-5.440676E-2],"split_indices":[21,9,10,19,11,12,0,0,0,0,0,0,0,0,0],"split_type":[0,0,0,0,0,0,0,0,0,0,0,0,0,0,0],"sum_hessian":[7.213806E2,2.5044438E2,4.7093622E2,1.3318254E2,1.1726184E2,3.6164713E2,1.0928911E2,4.7618095E1,8.556444E1,1.1265458E2,4.6072645E0,3.357665E2,2.5880623E1,9.6951385E1,1.2337722E1],"tree_param":{"num_deleted":"0","num_feature":"24","num_nodes":"15","size_leaf_vector":"1"}},{"base_weights":[1.18911145E-2,-1.3140531E-1,4.6066114E-1,-4.1139418E-1,-2.1341411E-2,5.439089E-1,-1.1690217E-1,4.18253E-2,-4.808024E-2,-5.0297733E-2,8.368081E-3,5.744946E-2,7.103623E-3,-3.5637427E-2,5.866154E-2],"categories":[],"categories_nodes":[],"categories_segments":[],"categories_sizes":[],"default_left":[0,0,0,0,0,0,0,0,0,0,0,0,0,0,0],"id":66,"left_children":[1,3,5,7,9,11,13,-1,-1,-1,-1,-1,-1,-1,-1],"loss_changes":[4.9757607E1,1.8066587E1,9.067337E0,9.728701E0,2.1392464E1,2.3289604E0,4.32217E0,0E0,0E0,0E0,0E0,0E0,0E0,0E0,0E0],"parents":[2147483647,0,0,1,1,2,2,3,3,4,4,5,5,6,6],"right_children":[2,4,6,8,10,12,14,-1,-1,-1,-1,-1,-1,-1,-1],"split_conditions":[2E0,5E-1,1E0,1E1,1.08E2,1.9E1,5E0,4.18253E-2,-4.808024E-2,-5.0297733E-2,8.368081E-3,5.744946E-2,7.103623E-3,-3.5637427E-2,5.866154E-2],"split_indices":[2,11,7,12,20,12,2,0,0,0,0,0,0,0,0],"split_type":[0,0,0,0,0,0,0,0,0,0,0,0,0,0,0],"sum_hessian":[7.71808E2,5.8554517E2,1.862628E2,1.644548E2,4.210904E2,1.628487E2,2.341412E1,1.2308103E1,1.521467E2,7.4704315E1,3.4638608E2,1.5275359E2,1.0095101E1,1.7836239E1,5.577882E0],"tree_param":{"num_deleted":"0","num_feature":"24","num_nodes":"15","size_leaf_vector":"1"}},{"base_weights":[1.8599423E-2,-3.9144742E-1,1.4970095E-1,-4.1740268E-1,4.1448918E-1,1.9559896E-1,-5.727909E-2,-4.5942288E-2,3.5594826E-4,-3.9073493E-2,8.374895E-2,2.3854472E-2,-5.2357554E-2],"categories":[],"categories_nodes":[],"categories_segments":[],"categories_sizes":[],"default_left":[0,0,0,0,0,0,0,0,0,0,0,0,0],"id":67,"left_children":[1,3,5,7,9,11,-1,-1,-1,-1,-1,-1,-1],"loss_changes":[4.4017586E1,4.322838E0,2.068311E1,3.4101334E0,2.6063766E0,1.8162998E1,0E0,0E0,0E0,0E0,0E0,0E0,0E0],"parents":[2147483647,0,0,1,1,2,2,3,3,4,4,5,5],"right_children":[2,4,6,8,10,12,-1,-1,-1,-1,-1,-1,-1],"split_conditions":[2E0,3.25E2,6.9E1,1.52E2,8.264903E0,7.9E1,-5.727909E-2,-4.5942288E-2,3.5594826E-4,-3.9073493E-2,8.374895E-2,2.3854472E-2,-5.2357554E-2],"split_indices":[12,3,12,20,13,10,0,0,0,0,0,0,0],"split_type":[0,0,0,0,0,0,0,0,0,0,0,0,0],"sum_hessian":[8.167233E2,1.9738272E2,6.1934064E2,1.9169138E2,5.6913476E0,5.8303143E2,3.6309177E1,1.7421043E2,1.7480934E1,1.9863693E0,3.7049782E0,5.5080804E2,3.2223385E1],"tree_param":{"num_deleted":"0","num_feature":"24","num_nodes":"13","size_leaf_vector":"1"}},{"base_weights":[-1.2841534E-2,5.08273E-1,-1.3109982E-1,5.366249E-1,-4.97787E-2,-2.5284058E-1,4.1905135E-1,-3.6033385E-2,5.5125188E-2,1.2581226E-2,-3.4663484E-2,4.8719417E-2,-6.828426E-2],"categories":[],"categories_nodes":[],"categories_segments":[],"categories_sizes":[],"default_left":[0,0,0,0,0,0,0,0,0,0,0,0,0],"id":68,"left_children":[1,3,5,7,-1,9,11,-1,-1,-1,-1,-1,-1],"loss_changes":[4.3107414E1,3.9576416E0,3.8284428E1,1.8559227E0,0E0,1.6642551E1,8.116205E0,0E0,0E0,0E0,0E0,0E0,0E0],"parents":[2147483647,0,0,1,1,2,2,3,3,5,5,6,6],"right_children":[2,4,6,8,-1,10,12,-1,-1,-1,-1,-1,-1],"split_conditions":[1.09E2,2.28E2,7.6E1,2.5E1,-4.97787E-2,3.9E0,4E0,-3.6033385E-2,5.5125188E-2,1.2581226E-2,-3.4663484E-2,4.8719417E-2,-6.828426E-2],"split_indices":[20,16,10,10,0,13,4,0,0,0,0,0,0],"split_type":[0,0,0,0,0,0,0,0,0,0,0,0,0],"sum_hessian":[6.974179E2,1.283843E2,5.6903357E2,1.2531927E2,3.065028E0,4.663723E2,1.0266126E2,1.6315951E0,1.23687675E2,9.252046E1,3.7385187E2,9.720765E1,5.4536157E0],"tree_param":{"num_deleted":"0","num_feature":"24","num_nodes":"13","size_leaf_vector":"1"}},{"base_weights":[1.3758579E-2,-1.2585105E-1,4.60319E-1,2.3839507E-1,-2.2120275E-1,5.478012E-1,-1.676529E-1,5.153938E-2,-2.9837567E-2,-2.8626397E-2,7.0804073E-3,5.908947E-2,3.3832952E-2,-3.730112E-2,4.4369623E-2],"categories":[],"categories_nodes":[],"categories_segments":[],"categories_sizes":[],"default_left":[0,0,0,0,0,0,0,0,0,0,0,0,0,0,0],"id":69,"left_children":[1,3,5,7,9,11,13,-1,-1,-1,-1,-1,-1,-1,-1],"loss_changes":[4.6438545E1,1.976435E1,9.837658E0,1.773251E1,8.575497E0,1.2077751E0,2.9849448E0,0E0,0E0,0E0,0E0,0E0,0E0,0E0,0E0],"parents":[2147483647,0,0,1,1,2,2,3,3,4,4,5,5,6,6],"right_children":[2,4,6,8,10,12,14,-1,-1,-1,-1,-1,-1,-1,-1],"split_conditions":[2E0,4.2E1,1E0,4.4E1,1.731E3,8E0,5E0,5.153938E-2,-2.9837567E-2,-2.8626397E-2,7.0804073E-3,5.908947E-2,3.3832952E-2,-3.730112E-2,4.4369623E-2],"split_indices":[2,10,7,22,0,17,2,0,0,0,0,0,0,0,0],"split_type":[0,0,0,0,0,0,0,0,0,0,0,0,0,0,0],"sum_hessian":[7.4294507E2,5.665431E2,1.7640201E2,1.1722814E2,4.493149E2,1.549445E2,2.1457502E1,7.7351166E1,3.987698E1,3.674615E2,8.185342E1,1.2699714E2,2.7947365E1,1.6353914E1,5.1035876E0],"tree_param":{"num_deleted":"0","num_feature":"24","num_nodes":"15","size_leaf_vector":"1"}},{"base_weights":[-5.3733517E-3,-2.5421032E-1,1.8460712E-1,1.658399E-3,-3.8264146E-1,2.6686564E-1,-4.126689E-1,2.2772877E-2,-5.1107515E-2,-4.070795E-2,4.6065714E-2,3.0919513E-2,-5.8648895E-2,-5.584983E-2,4.4462997E-2],"categories":[],"categories_nodes":[],"categories_segments":[],"categories_sizes":[],"default_left":[0,0,0,0,0,0,0,0,0,0,0,0,0,0,0],"id":70,"left_children":[1,3,5,7,9,11,13,-1,-1,-1,-1,-1,-1,-1,-1],"loss_changes":[3.730588E1,1.1227394E1,2.2096636E1,1.3466145E1,4.875332E0,1.44114E1,7.069889E0,0E0,0E0,0E0,0E0,0E0,0E0,0E0,0E0],"parents":[2147483647,0,0,1,1,2,2,3,3,4,4,5,5,6,6],"right_children":[2,4,6,8,10,12,14,-1,-1,-1,-1,-1,-1,-1,-1],"split_conditions":[1.39E2,6E-1,2E0,7.5E1,4E0,8E1,1.4E1,2.2772877E-2,-5.1107515E-2,-4.070795E-2,4.6065714E-2,3.0919513E-2,-5.8648895E-2,-5.584983E-2,4.4462997E-2],"split_indices":[20,11,2,10,11,10,3,0,0,0,0,0,0,0,0],"split_type":[0,0,0,0,0,0,0,0,0,0,0,0,0,0,0],"sum_hessian":[7.871462E2,3.4063864E2,4.4650757E2,1.1416965E2,2.26469E2,3.9294348E2,5.3564068E1,7.962006E1,3.4549587E1,2.2059366E2,5.875325E0,3.7498074E2,1.796275E1,4.607508E1,7.488986E0],"tree_param":{"num_deleted":"0","num_feature":"24","num_nodes":"15","size_leaf_vector":"1"}},{"base_weights":[-2.6075002E-2,2.9190695E-1,-2.2390248E-1,-1.4721251E-2,5.207027E-1,-3.9245644E-1,3.2618022E-1,4.5131247E-2,-2.5153091E-2,5.4172225E-2,-5.564919E-2,-4.6793275E-2,3.8707938E-2,5.44998E-2,3.6111474E-3],"categories":[],"categories_nodes":[],"categories_segments":[],"categories_sizes":[],"default_left":[0,0,0,0,0,0,0,0,0,0,0,0,0,0,0],"id":71,"left_children":[1,3,5,7,9,11,13,-1,-1,-1,-1,-1,-1,-1,-1],"loss_changes":[4.1766125E1,1.7874733E1,3.8071396E1,1.2231319E1,3.6044464E0,1.8638218E1,6.107294E0,0E0,0E0,0E0,0E0,0E0,0E0,0E0,0E0],"parents":[2147483647,0,0,1,1,2,2,3,3,4,4,5,5,6,6],"right_children":[2,4,6,8,10,12,14,-1,-1,-1,-1,-1,-1,-1,-1],"split_conditions":[1.29E2,1.26E2,5.2E1,1.09E2,1E1,7.8E1,9.47E2,4.5131247E-2,-2.5153091E-2,5.4172225E-2,-5.564919E-2,-4.6793275E-2,3.8707938E-2,5.44998E-2,3.6111474E-3],"split_indices":[21,9,12,20,5,10,1,0,0,0,0,0,0,0,0],"split_type":[0,0,0,0,0,0,0,0,0,0,0,0,0,0,0],"sum_hessian":[6.619106E2,2.53679E2,4.082316E2,1.0880117E2,1.4487784E2,3.127015E2,9.553009E1,3.6353283E1,7.244788E1,1.425925E2,2.2853398E0,2.854622E2,2.723932E1,5.3951843E1,4.1578247E1],"tree_param":{"num_deleted":"0","num_feature":"24","num_nodes":"15","size_leaf_vector":"1"}},{"base_weights":[1.0889258E-2,-1.211351E-1,4.5351297E-1,9.224979E-2,-3.0564982E-1,-4.7795095E-2,5.0406456E-1,2.2230936E-2,-3.3675347E-2,-4.7329735E-2,1.6284582E-3,5.7756055E-2,1.1384553E-2],"categories":[],"categories_nodes":[],"categories_segments":[],"categories_sizes":[],"default_left":[0,0,0,0,0,0,0,0,0,0,0,0,0],"id":72,"left_children":[1,3,5,7,9,-1,11,-1,-1,-1,-1,-1,-1],"loss_changes":[4.204084E1,2.1848515E1,8.023472E0,1.4456986E1,1.6060835E1,0E0,4.444351E0,0E0,0E0,0E0,0E0,0E0,0E0],"parents":[2147483647,0,0,1,1,2,2,3,3,4,4,6,6],"right_children":[2,4,6,8,10,-1,12,-1,-1,-1,-1,-1,-1],"split_conditions":[2E0,5.9E1,9.8E1,3.5E1,4E0,-4.7795095E-2,1.2E1,2.2230936E-2,-3.3675347E-2,-4.7329735E-2,1.6284582E-3,5.7756055E-2,1.1384553E-2],"split_indices":[2,10,19,22,4,0,3,0,0,0,0,0,0],"split_type":[0,0,0,0,0,0,0,0,0,0,0,0,0],"sum_hessian":[7.174801E2,5.531998E2,1.6428032E2,2.567627E2,2.9643713E2,8.021492E0,1.5625882E2,1.9739949E2,5.936319E1,1.9461902E2,1.01818115E2,1.3108876E2,2.5170065E1],"tree_param":{"num_deleted":"0","num_feature":"24","num_nodes":"13","size_leaf_vector":"1"}},{"base_weights":[1.1472421E-2,-3.0535522E-1,1.6331883E-1,4.524875E-2,-4.036111E-1,2.1549504E-1,-5.6255646E-2,-3.3416048E-2,2.860409E-2,-4.7890864E-2,2.883545E-3,-1.553666E-2,2.7089009E-2],"categories":[],"categories_nodes":[],"categories_segments":[],"categories_sizes":[],"default_left":[0,0,0,0,0,0,0,0,0,0,0,0,0],"id":73,"left_children":[1,3,5,7,9,11,-1,-1,-1,-1,-1,-1,-1],"loss_changes":[3.6313244E1,8.443239E0,1.9444563E1,5.068661E0,6.2374134E0,9.835711E0,0E0,0E0,0E0,0E0,0E0,0E0,0E0],"parents":[2147483647,0,0,1,1,2,2,3,3,4,4,5,5],"right_children":[2,4,6,8,10,12,-1,-1,-1,-1,-1,-1,-1],"split_conditions":[7E0,2.5E1,6.9E1,1.32E2,1.51E2,1.31E2,-5.6255646E-2,-3.3416048E-2,2.860409E-2,-4.7890864E-2,2.883545E-3,-1.553666E-2,2.7089009E-2],"split_indices":[12,0,12,9,21,21,0,0,0,0,0,0,0],"split_type":[0,0,0,0,0,0,0,0,0,0,0,0,0],"sum_hessian":[7.52773E2,2.435645E2,5.0920847E2,5.34346E1,1.901299E2,4.757169E2,3.3491596E1,2.059535E1,3.2839252E1,1.6184247E2,2.8287434E1,6.158821E1,4.1412866E2],"tree_param":{"num_deleted":"0","num_feature":"24","num_nodes":"13","size_leaf_vector":"1"}},{"base_weights":[-1.8667253E-2,4.8754066E-1,-1.2656425E-1,5.2563894E-1,-5.4894924E-1,-2.5917363E-1,3.32974E-1,-3.57184E-2,5.400587E-2,-6.559133E-2,-2.0988027E-2,-3.344521E-2,4.1806724E-2,4.2584047E-2,-3.4091264E-2],"categories":[],"categories_nodes":[],"categories_segments":[],"categories_sizes":[],"default_left":[0,0,0,0,0,0,0,0,0,0,0,0,0,0,0],"id":74,"left_children":[1,3,5,7,9,11,13,-1,-1,-1,-1,-1,-1,-1,-1],"loss_changes":[3.5106445E1,4.7483463E0,3.2365166E1,1.5861511E0,2.5299907E-2,2.1125435E1,7.5961304E0,0E0,0E0,0E0,0E0,0E0,0E0,0E0,0E0],"parents":[2147483647,0,0,1,1,2,2,3,3,4,4,5,5,6,6],"right_children":[2,4,6,8,10,12,14,-1,-1,-1,-1,-1,-1,-1,-1],"split_conditions":[1.09E2,2.27E2,5.2E1,2.5E1,6.4E1,7.8E1,3E0,-3.57184E-2,5.400587E-2,-6.559133E-2,-2.0988027E-2,-3.344521E-2,4.1806724E-2,4.2584047E-2,-3.4091264E-2],"split_indices":[20,16,12,10,10,10,4,0,0,0,0,0,0,0,0],"split_type":[0,0,0,0,0,0,0,0,0,0,0,0,0,0,0],"sum_hessian":[6.406299E2,1.1193918E2,5.2869073E2,1.0844589E2,3.4932818E0,4.1063065E2,1.1806007E2,1.3608291E0,1.0708507E2,1.9451907E0,1.5480912E0,3.700086E2,4.062202E1,1.0408454E2,1.3975526E1],"tree_param":{"num_deleted":"0","num_feature":"24","num_nodes":"15","size_leaf_vector":"1"}},{"base_weights":[2.352204E-2,-9.648452E-2,4.2727014E-1,-3.343422E-1,6.7317076E-2,5.5821604E-1,1.308451E-1,-8.695556E-4,-4.982859E-2,2.3658078E-2,-3.979877E-2,-2.8639972E-2,5.6866296E-2,-1.3677421E-2,4.7821045E-2],"categories":[],"categories_nodes":[],"categories_segments":[],"categories_sizes":[],"default_left":[0,0,0,0,0,0,0,0,0,0,0,0,0,0,0],"id":75,"left_children":[1,3,5,7,9,11,13,-1,-1,-1,-1,-1,-1,-1,-1],"loss_changes":[3.381241E1,2.0988123E1,6.133011E0,1.172047E1,2.5257359E1,1.1386719E0,4.7408957E0,0E0,0E0,0E0,0E0,0E0,0E0,0E0,0E0],"parents":[2147483647,0,0,1,1,2,2,3,3,4,4,5,5,6,6],"right_children":[2,4,6,8,10,12,14,-1,-1,-1,-1,-1,-1,-1,-1],"split_conditions":[2E0,2E0,1.08E2,6E1,3.5E1,1.07E2,5E0,-8.695556E-4,-4.982859E-2,2.3658078E-2,-3.979877E-2,-2.8639972E-2,5.6866296E-2,-1.3677421E-2,4.7821045E-2],"split_indices":[2,4,14,10,22,20,2,0,0,0,0,0,0,0,0],"split_type":[0,0,0,0,0,0,0,0,0,0,0,0,0,0,0],"sum_hessian":[6.9599677E2,5.371115E2,1.588853E2,2.1861607E2,3.184954E2,1.0959049E2,4.9294804E1,7.355817E1,1.450579E2,2.3390092E2,8.4594475E1,1.0162202E0,1.0857427E2,2.8185902E1,2.1108902E1],"tree_param":{"num_deleted":"0","num_feature":"24","num_nodes":"15","size_leaf_vector":"1"}},{"base_weights":[4.764859E-3,-3.7346363E-1,1.2208475E-1,-4.076058E-1,5.2623165E-1,1.6639666E-1,-5.6102037E-2,-4.597481E-2,1.1984856E-2,8.446507E-2,-3.4362208E-2,-2.3918675E-2,2.4480488E-2],"categories":[],"categories_nodes":[],"categories_segments":[],"categories_sizes":[],"default_left":[0,0,0,0,0,0,0,0,0,0,0,0,0],"id":76,"left_children":[1,3,5,7,9,11,-1,-1,-1,-1,-1,-1,-1],"loss_changes":[3.2193005E1,5.4906273E0,1.6853886E1,4.6218185E0,2.150515E0,1.6618896E1,0E0,0E0,0E0,0E0,0E0,0E0,0E0],"parents":[2147483647,0,0,1,1,2,2,3,3,4,4,5,5],"right_children":[2,4,6,8,10,12,-1,-1,-1,-1,-1,-1,-1],"split_conditions":[2E0,3.25E2,6.9E1,1.53E2,2.6E1,1.3E2,-5.6102037E-2,-4.597481E-2,1.1984856E-2,8.446507E-2,-3.4362208E-2,-2.3918675E-2,2.4480488E-2],"split_indices":[12,3,12,20,10,20,0,0,0,0,0,0,0],"split_type":[0,0,0,0,0,0,0,0,0,0,0,0,0],"sum_hessian":[7.2346954E2,1.7076279E2,5.527067E2,1.6504645E2,5.7163258E0,5.197479E2,3.2958786E1,1.5031519E2,1.4731275E1,4.2057433E0,1.5105823E0,8.386866E1,4.358793E2],"tree_param":{"num_deleted":"0","num_feature":"24","num_nodes":"13","size_leaf_vector":"1"}},{"base_weights":[-2.3598844E-2,4.9196023E-1,-1.3008064E-1,-6.634885E-2,5.143154E-1,-2.4640271E-1,3.6858472E-1,1.1747071E-3,5.379652E-2,-3.1423535E-2,5.659768E-2,4.725394E-2,-6.150625E-2],"categories":[],"categories_nodes":[],"categories_segments":[],"categories_sizes":[],"default_left":[0,0,0,0,0,0,0,0,0,0,0,0,0],"id":77,"left_children":[1,3,5,-1,7,9,11,-1,-1,-1,-1,-1,-1],"loss_changes":[3.3823647E1,3.0657673E0,2.9701494E1,0E0,1.2302513E0,2.3020464E1,1.020477E1,0E0,0E0,0E0,0E0,0E0,0E0],"parents":[2147483647,0,0,1,1,2,2,4,4,5,5,6,6],"right_children":[2,4,6,-1,8,10,12,-1,-1,-1,-1,-1,-1],"split_conditions":[1.08E2,2.5E1,7.6E1,-6.634885E-2,1.11E2,6.9E1,3E0,1.1747071E-3,5.379652E-2,-3.1423535E-2,5.659768E-2,4.725394E-2,-6.150625E-2],"split_indices":[20,10,10,0,9,12,4,0,0,0,0,0,0],"split_type":[0,0,0,0,0,0,0,0,0,0,0,0,0],"sum_hessian":[6.1395605E2,1.04478134E2,5.0947794E2,1.4386876E0,1.03039444E2,4.135227E2,9.595523E1,4.698156E0,9.834129E1,3.8222095E2,3.1301752E1,8.7253624E1,8.701608E0],"tree_param":{"num_deleted":"0","num_feature":"24","num_nodes":"13","size_leaf_vector":"1"}},{"base_weights":[1.8128354E-2,1.7439811E-1,-2.5781876E-1,3.551096E-1,-2.9569507E-1,4.0718768E-2,-4.3317482E-1,4.6765037E-2,2.101132E-3,-4.9901884E-2,2.2745738E-2,-4.12333E-3,1.05962574E-1,-5.1742133E-2,-8.533783E-3],"categories":[],"categories_nodes":[],"categories_segments":[],"categories_sizes":[],"default_left":[0,0,0,0,0,0,0,0,0,0,0,0,0,0,0],"id":78,"left_children":[1,3,5,7,9,11,13,-1,-1,-1,-1,-1,-1,-1,-1],"loss_changes":[2.9169058E1,3.67864E1,1.2822105E1,1.1734432E1,1.2924993E1,7.677487E0,4.4736767E0,0E0,0E0,0E0,0E0,0E0,0E0,0E0,0E0],"parents":[2147483647,0,0,1,1,2,2,3,3,4,4,5,5,6,6],"right_children":[2,4,6,8,10,12,14,-1,-1,-1,-1,-1,-1,-1,-1],"split_conditions":[1.7E1,4.1E1,6E1,1.49E2,1.33E2,3E0,4E0,4.6765037E-2,2.101132E-3,-4.9901884E-2,2.2745738E-2,-4.12333E-3,1.05962574E-1,-5.1742133E-2,-8.533783E-3],"split_indices":[12,22,10,19,19,5,4,0,0,0,0,0,0,0,0],"split_type":[0,0,0,0,0,0,0,0,0,0,0,0,0,0,0],"sum_hessian":[6.743853E2,4.3079352E2,2.4359178E2,3.1135007E2,1.1944344E2,9.0421005E1,1.5317079E2,2.3259941E2,7.875067E1,8.604723E1,3.3396214E1,8.457783E1,5.843177E0,1.22913475E2,3.025731E1],"tree_param":{"num_deleted":"0","num_feature":"24","num_nodes":"15","size_leaf_vector":"1"}},{"base_weights":[-5.3005107E-3,-2.170427E-1,1.7351519E-1,3.2657627E-2,-3.61648E-1,2.4496432E-1,-4.0127358E-1,2.0914849E-2,-4.7250923E-2,-3.910334E-2,4.992767E-2,2.8325949E-2,-5.6918193E-2,-5.6341745E-2,3.213164E-2],"categories":[],"categories_nodes":[],"categories_segments":[],"categories_sizes":[],"default_left":[0,0,0,0,0,0,0,0,0,0,0,0,0,0,0],"id":79,"left_children":[1,3,5,7,9,11,13,-1,-1,-1,-1,-1,-1,-1,-1],"loss_changes":[2.714112E1,1.1861951E1,1.6059307E1,1.091131E1,5.45512E0,1.0958071E1,5.259897E0,0E0,0E0,0E0,0E0,0E0,0E0,0E0,0E0],"parents":[2147483647,0,0,1,1,2,2,3,3,4,4,5,5,6,6],"right_children":[2,4,6,8,10,12,14,-1,-1,-1,-1,-1,-1,-1,-1],"split_conditions":[1.4E2,6E-1,2E0,7.6E1,4E0,8E1,8E0,2.0914849E-2,-4.7250923E-2,-3.910334E-2,4.992767E-2,2.8325949E-2,-5.6918193E-2,-5.6341745E-2,3.213164E-2],"split_indices":[20,11,2,10,11,10,17,0,0,0,0,0,0,0,0],"split_type":[0,0,0,0,0,0,0,0,0,0,0,0,0,0,0],"sum_hessian":[7.14833E2,3.2718616E2,3.8764682E2,1.20274216E2,2.0691194E2,3.4529834E2,4.23485E1,8.956778E1,3.0706438E1,2.0061043E2,6.301515E0,3.304089E2,1.4889438E1,3.4767265E1,7.5812354E0],"tree_param":{"num_deleted":"0","num_feature":"24","num_nodes":"15","size_leaf_vector":"1"}},{"base_weights":[-3.396644E-2,2.921725E-1,-2.0187601E-1,4.8585314E-2,5.112745E-1,-3.0440998E-1,4.8960152E-1,4.4729173E-2,-2.9415563E-2,5.560499E-2,-5.395931E-2,1.6831892E-2,-3.550436E-2,5.5444576E-2,1.6356336E-2],"categories":[],"categories_nodes":[],"categories_segments":[],"categories_sizes":[],"default_left":[0,0,0,0,0,0,0,0,0,0,0,0,0,0,0],"id":80,"left_children":[1,3,5,7,9,11,13,-1,-1,-1,-1,-1,-1,-1,-1],"loss_changes":[3.2401035E1,1.07096E1,2.7832897E1,1.3297892E1,5.277405E0,8.213747E0,9.834261E-1,0E0,0E0,0E0,0E0,0E0,0E0,0E0,0E0],"parents":[2147483647,0,0,1,1,2,2,3,3,4,4,5,5,6,6],"right_children":[2,4,6,8,10,12,14,-1,-1,-1,-1,-1,-1,-1,-1],"split_conditions":[1.23E2,1.29E2,6.7E1,1.09E2,1.38E2,1E0,3.9713952E-1,4.4729173E-2,-2.9415563E-2,5.560499E-2,-5.395931E-2,1.6831892E-2,-3.550436E-2,5.5444576E-2,1.6356336E-2],"split_indices":[20,9,12,20,19,17,11,0,0,0,0,0,0,0,0],"split_type":[0,0,0,0,0,0,0,0,0,0,0,0,0,0,0],"sum_hessian":[5.895946E2,2.0013077E2,3.894638E2,9.534855E1,1.0478223E2,3.3965823E2,4.9805576E1,4.3934746E1,5.1413803E1,1.00951744E2,3.8304846E0,3.263596E1,3.0702228E2,4.09589E1,8.846679E0],"tree_param":{"num_deleted":"0","num_feature":"24","num_nodes":"15","size_leaf_vector":"1"}},{"base_weights":[2.5606403E-2,-1.3106224E-1,3.22984E-1,-3.9770693E-1,-1.7131912E-2,3.8804087E-1,-4.6530163E-1,-4.588902E-2,6.5047406E-2,1.1727027E-2,-3.9628696E-2,4.497792E-2,-5.0841393E-3,-6.433087E-2,4.1929092E-2],"categories":[],"categories_nodes":[],"categories_segments":[],"categories_sizes":[],"default_left":[0,0,0,0,0,0,0,0,0,0,0,0,0,0,0],"id":81,"left_children":[1,3,5,7,9,11,13,-1,-1,-1,-1,-1,-1,-1,-1],"loss_changes":[3.0331968E1,1.2950325E1,1.1699722E1,8.4841175E0,1.5328067E1,5.659851E0,3.0378013E0,0E0,0E0,0E0,0E0,0E0,0E0,0E0,0E0],"parents":[2147483647,0,0,1,1,2,2,3,3,4,4,5,5,6,6],"right_children":[2,4,6,8,10,12,14,-1,-1,-1,-1,-1,-1,-1,-1],"split_conditions":[1E0,5E-1,9.5E1,2.822E3,3.3E1,1.4E1,1.31E2,-4.588902E-2,6.5047406E-2,1.1727027E-2,-3.9628696E-2,4.497792E-2,-5.0841393E-3,-6.433087E-2,4.1929092E-2],"split_indices":[2,11,22,1,22,3,19,0,0,0,0,0,0,0,0],"split_type":[0,0,0,0,0,0,0,0,0,0,0,0,0,0,0],"sum_hessian":[6.491353E2,4.2551746E2,2.2361783E2,1.26638824E2,2.9887866E2,2.0703876E2,1.6579079E1,1.2018568E2,6.453144E0,2.2116957E2,7.7709076E1,1.8148422E2,2.5554522E1,1.4028814E1,2.5502634E0],"tree_param":{"num_deleted":"0","num_feature":"24","num_nodes":"15","size_leaf_vector":"1"}},{"base_weights":[1.8706124E-2,-4.3361408E-1,9.5915705E-2,-2.0748809E-1,-5.2017456E-1,1.6210891E-1,-3.3934343E-1,2.6758043E-2,-4.3721158E-2,5.5245147E-3,-5.347949E-2,2.0812402E-2,-5.5432767E-2,-5.156945E-2,3.670762E-2],"categories":[],"categories_nodes":[],"categories_segments":[],"categories_sizes":[],"default_left":[0,0,0,0,0,0,0,0,0,0,0,0,0,0,0],"id":82,"left_children":[1,3,5,7,9,11,13,-1,-1,-1,-1,-1,-1,-1,-1],"loss_changes":[2.4524826E1,1.8964081E0,1.733176E1,3.392209E0,6.469574E-1,1.7296871E1,1.0090671E1,0E0,0E0,0E0,0E0,0E0,0E0,0E0,0E0],"parents":[2147483647,0,0,1,1,2,2,3,3,4,4,5,5,6,6],"right_children":[2,4,6,8,10,12,14,-1,-1,-1,-1,-1,-1,-1,-1],"split_conditions":[1.23E2,4.7E1,2E0,6.040144E0,2E1,6.9E1,1.2E1,2.6758043E-2,-4.3721158E-2,5.5245147E-3,-5.347949E-2,2.0812402E-2,-5.5432767E-2,-5.156945E-2,3.670762E-2],"split_indices":[20,10,2,13,14,12,3,0,0,0,0,0,0,0,0],"split_type":[0,0,0,0,0,0,0,0,0,0,0,0,0,0,0],"sum_hessian":[7.0005426E2,1.0140032E2,5.9865393E2,2.9010885E1,7.238944E1,5.201745E2,7.847939E1,9.402242E0,1.9608644E1,1.7248503E0,7.066459E1,4.894479E2,3.0726622E1,6.301762E1,1.5461774E1],"tree_param":{"num_deleted":"0","num_feature":"24","num_nodes":"15","size_leaf_vector":"1"}},{"base_weights":[-2.532691E-2,-1.40255E-1,3.9325777E-1,-3.3282414E-1,1.8552558E-1,4.8008716E-1,-3.083298E-1,4.1397788E-2,-3.862473E-2,7.963278E-2,2.8671722E-3,-2.31167E-2,5.1805254E-2,7.683969E-2,-4.743183E-2],"categories":[],"categories_nodes":[],"categories_segments":[],"categories_sizes":[],"default_left":[0,0,0,0,0,0,0,0,0,0,0,0,0,0,0],"id":83,"left_children":[1,3,5,7,9,11,13,-1,-1,-1,-1,-1,-1,-1,-1],